tree
version=v4
num_class=1
num_tree_per_iteration=1
label_index=0
max_feature_idx=14
objective=binary sigmoid:1
feature_names=turn target_index coverage_mean coverage_at_target coverage_gradient impossible_at_target remaining_sum remaining_count target_row target_col is_horizontal_hit is_vertical_hit is_diagonal_hit num_ships_that_can_fit_here max_ship_size_that_fits
feature_infos=[1:60] [0:99] [0.029999999999999999:24.800000000000001] [1:34] [-10.375:23.75] none [0:17] [0:5] [0:9] [0:9] [0:1] [0:1] [0:1] [0:5] [0:5]
tree_sizes=3473 3493 3484 3536 3461 3483 3497 3483 3508 3512 3505 3494 3496 3486 3477 3460 3502 3536 3535 3496 3497 3510 3521 3489 3481 3498 3475 3457 3458 3507 3490 3451 3521 3500 3486 3508 3481 3511 3498 3502 3487 3503 3518 3488 3527 3451 3473 3497 3453 3527 3505 3483 3513 3465 3491 3483 3499 3504 3489 3455 3457 3469 3507 3511 3462 3490 3495 3516 3469 3496 3493 3489 3489 3490 3462 3488 3483 3525 3512 3476 3513 3504 3474 3525 3485 3470 3484 3490 3483 3505 3469 3473 3514 3481 3488 3472 3491 3487 3511 3478 3486 3494 3508 3479 3497 3493 3526 3476 3504 3502 3494 3513 3492 3464 3498 3500 3426 3489 3501 3516 3487 3497 3488 3480 3494 3489 3475 3481 3452 3501 3476 3462 3497 3472 3425 3514 3513 3483 3486 3506 3509 3473 3505 3464 3461 3482 3508 3508 3482 3494 3420 3459 3526 3494 3462 3504 3504 3482 3446 3502 3478 3455 3466 3423 3509 3494 3489 3487 3517 3489 3513 3477 3455 3505 3508 3467 3500 3495 3496 3530 3478 3471 3482 3497 3483 3490 3490 3502 3518 3504 3490 3497 3454 3510 3459 3469 3445 3457 3478 3479 3483 3499 3491 3515 3494 3488 3516 3460 3485 3459 3493 3506 3510 3492 3484 3488 3459 3438 3482 3446 3478 3484 3505 3506 3451 3506 3480 3453 3446 3453 3505 3460 3507 3480 3494 3497 3506 3480 3489 3482 3458 3474 3478 3465 3444 3473 3503 3498 3486 3508 3498 3488 3501 3458 3436 3491 3489 3462 3492 3461 3473 3486 3501 3436 3482 3476 3485 3474 3497 3490 3485 3444 3482 3515 3471 3497 3478 3471 3499 3469 3457 3478 3449 3470 3457 3468 3491 3493 3417 3428 3470 3484 3481 3495 3488 3491 3480 3471 3470 3449

Tree=0
num_leaves=31
num_cat=0
split_feature=13 6 3 6 11 11 3 12 1 2 12 2 1 2 3 4 2 1 2 2 4 6 3 6 2 1 1 4 3 2
split_gain=240308 30150.8 3941.02 1714.35 1188.78 1058.8 648.842 827.502 632.758 599.579 414.689 259.675 227.669 189.508 177.269 255.143 162.141 156.629 137.292 163.801 132.156 107.839 107.639 92.2043 91.2549 69.9376 63.8466 60.9593 56.2671 37.5296
threshold=1.0000000180025095e-35 1.0000000180025095e-35 2.5000000000000004 2.5000000000000004 1.0000000180025095e-35 1.0000000180025095e-35 9.5000000000000018 1.0000000180025095e-35 98.500000000000014 0.070000000000000021 1.0000000180025095e-35 3.9050000000000007 80.500000000000014 1.6450000000000002 8.5000000000000018 0.93750000000000011 7.0950000000000006 71.500000000000014 0.13000000000000003 2.1050000000000004 0.86607142857142894 6.5000000000000009 5.5000000000000009 3.5000000000000004 2.2250000000000005 98.500000000000014 97.500000000000014 1.8000000000000005 1.5000000000000002 1.5650000000000002
decision_type=2 2 2 2 2 2 2 2 2 2 2 2 2 2 2 2 2 2 2 2 2 2 2 2 2 2 2 2 2 2
left_child=1 -1 3 13 8 9 7 12 14 -5 20 27 16 -3 15 26 -6 24 -12 -20 -7 -17 -13 -19 -11 -14 -4 -9 -22 -10
right_child=-2 2 4 5 6 10 -8 11 29 17 18 22 25 -15 -16 21 -18 23 19 -21 28 -23 -24 -25 -26 -27 -28 -29 -30 -31
leaf_value=0.099999978297467776 0.099999978297467776 -0.091427350191420134 -0.071494773704580905 0.071511482097402532 -0.039256691726471754 0.016998619479865102 -0.094113159542910788 -0.038195242676687113 -0.0098881427404242384 -0.058417875616699075 0.05177791809261241 0.036604365461877869 0.010681867019842889 0.059527837902843231 -0.09942918785478061 -0.095486998094688511 0.038217515698322595 -0.040969314749375187 -0.033056237267649724 0.077872987382283806 0.096747389855857777 -0.078655317936344088 -0.047173364056184525 0.0024964393042487339 0.022141360238094786 0.093030807447350192 -0.0092586351349771643 -0.089100349711856985 0.054745824025802234 0.088591308979248024
leaf_weight=2259.4265686869621 33782.865708321333 1330.2791035175323 1079.7297552078962 111.44870978593826 882.17185342311859 145.65359710156918 1485.9225910305977 61.855203151702881 12.223994895815848 1377.5001319795847 74.282562792301178 52.650756478309631 220.1190183609724 21.120932534337044 19410.319207787514 11055.271274939179 73.132047280669212 315.02875460684299 348.44844011962414 36.792356580495834 150.17654174566269 1041.2386302947998 141.05581372976303 199.13516919314861 36.073839381337166 29.203766033053398 42.844208404421806 1194.8927132040262 170.00172127783298 46.382945820689201
leaf_count=6974 104275 6432 5024 373 3845 560 7221 269 50 6245 262 193 859 73 95269 53863 267 1378 1499 121 468 4913 625 792 137 92 175 5752 595 148
internal_value=-2.27877e-08 -0.0778329 -0.0875983 -0.0423947 -0.0928957 -0.0211184 -0.067657 -0.0528507 -0.096093 -0.0412475 0.0232396 -0.0782891 -0.0222211 -0.0890681 -0.0963878 -0.0919221 -0.0333258 -0.0477665 -0.010461 -0.022462 0.0564839 -0.0940382 -0.024402 -0.0241351 -0.056362 0.0203276 -0.0691195 -0.0865949 0.0744463 0.0680509
internal_weight=77187.2 43404.4 41145 4315.94 36829 2964.54 4141 2655.08 32688 2039.19 925.355 1450.45 1204.63 1351.4 32629.4 13219.1 955.304 1927.74 459.523 385.241 465.832 12096.5 193.707 514.164 1413.57 249.323 1122.57 1256.75 320.178 58.6069
internal_count=308749 204474 197500 18935 178565 12430 19123 11902 159442 8925 3505 6839 5063 6505 159244 63975 4112 8552 1882 1620 1623 58776 818 2170 6382 951 5199 6021 1063 198
is_linear=0
shrinkage=1


Tree=1
num_leaves=31
num_cat=0
split_feature=13 6 3 6 11 11 10 3 10 3 2 7 2 6 2 4 7 2 2 6 0 2 7 4 2 3 2 4 7 9
split_gain=217405 27272.5 3575.16 1552.51 1080.57 956.292 1136.55 588.847 479.227 1286.83 418.478 675.016 345.208 271.186 264.204 245.697 217.703 171.439 170.178 159.65 144.812 140.626 134.488 133.31 114.953 102.323 99.1161 94.2251 85.3456 50.1441
threshold=1.0000000180025095e-35 1.0000000180025095e-35 2.5000000000000004 2.5000000000000004 1.0000000180025095e-35 1.0000000180025095e-35 1.0000000180025095e-35 9.5000000000000018 1.0000000180025095e-35 6.5000000000000009 1.6850000000000003 1.5000000000000002 4.9650000000000007 3.5000000000000004 0.070000000000000021 0.93750000000000011 1.5000000000000002 1.6450000000000002 2.1050000000000004 3.5000000000000004 38.500000000000007 0.13000000000000003 1.5000000000000002 3.1339285714285721 2.1050000000000004 9.5000000000000018 0.28500000000000009 0.93750000000000011 1.5000000000000002 8.5000000000000018
decision_type=2 2 2 2 2 2 2 2 2 2 2 2 2 2 2 2 2 2 2 2 2 2 2 2 2 2 2 2 2 2
left_child=1 -1 3 17 8 6 14 10 -4 20 13 18 -13 29 -5 28 -11 -3 -12 -17 22 -7 -10 -15 27 -18 -16 -23 -8 -6
right_child=-2 2 4 5 7 21 15 -9 9 16 11 12 -14 23 26 19 25 -19 -20 -21 -22 24 -24 -25 -26 -27 -28 -29 -30 -31
leaf_value=0.095241873570897986 0.095241873570897986 -0.087040784373253854 -0.094578971355707087 0.041155737020802052 -0.088681954393252674 0.068040614784950715 -0.0059901045484863089 -0.089609081543384234 0.00038011961638821233 0.10476250883760374 -0.0067126996904224943 -0.061091871962148186 -0.0027643493447436795 0.0013903143172021085 -0.053964927415638311 0.0064924644499233441 -0.074021778319848061 0.056602457783551476 0.08974621387511976 0.072255154272976754 -0.064838354979350005 -0.019696247884250447 -0.038807003352562167 -0.073535896686580796 0.072156100728035827 -0.093918866753706365 -0.084879035602059227 0.019763683721641653 -0.056578273211219714 -0.031700701365841688
leaf_weight=2253.7874159216881 33698.549296706915 1327.5030136108398 25940.617265075445 51.4385686814785 848.81738241016865 141.12192225456238 333.23046612739563 1482.6370798945427 318.92006830871105 14.225278198719023 72.997895821928978 973.03770676255226 343.12609851360321 155.19858717918396 387.94706501066685 202.78043566644192 752.79119554162025 21.102232277393341 122.38971650600433 169.3741143643856 325.49677293002605 219.24077978730202 698.44165946543217 96.141349792480469 76.231003373861313 4561.3821088969707 781.76992312073708 488.07215443253517 111.19224996864796 40.449567973613739
leaf_count=6974 104275 6432 127564 185 4119 473 1359 7221 1289 44 298 4461 1383 623 1753 803 3554 73 391 567 1511 917 3069 453 253 22411 3754 1862 504 174
internal_value=1.77077e-07 -0.0741028 -0.0833986 -0.0403221 -0.0884522 -0.0200771 -0.0392136 -0.0643727 -0.0915052 -0.0795533 -0.0502649 -0.0330119 -0.0458858 -0.0731287 -0.069749 0.00645076 -0.0905774 -0.0847931 0.0537086 0.0364222 -0.0358101 0.0220949 -0.0265227 -0.0272701 0.0138198 -0.0911003 -0.0746261 0.00753257 -0.018647 -0.0860901
internal_weight=77010 43311.5 41057.7 4311 36746.7 2962.4 2037.73 4134.8 32611.9 6671.26 2652.16 1511.55 1316.16 1140.61 1221.16 816.577 5328.4 1348.61 195.388 372.155 1342.86 924.666 1017.36 251.34 783.544 5314.17 1169.72 707.313 444.423 889.267
internal_count=308749 204474 197500 18935 178565 12430 8925 19123 159442 31878 11902 6533 5844 5369 5692 3233 26009 6505 689 1370 5869 3505 4358 1076 3032 25965 5507 2779 1863 4293
is_linear=0
shrinkage=0.05


Tree=2
num_leaves=31
num_cat=0
split_feature=14 6 3 6 11 11 1 3 12 2 12 2 1 9 2 3 2 3 6 2 2 4 4 3 3 9 3 9 1 2
split_gain=197563 24770.8 3274.95 1415.01 995.953 865.019 560.78 540.229 716.326 502.588 376.985 216.688 200.498 159.028 155.77 151.824 228.52 141.415 121.322 115.046 139.534 111.733 110.469 99.2614 99.2056 71.432 49.8229 49.1618 34.4371 32.4885
threshold=1.0000000180025095e-35 1.0000000180025095e-35 2.5000000000000004 2.5000000000000004 1.0000000180025095e-35 1.0000000180025095e-35 98.500000000000014 9.5000000000000018 1.0000000180025095e-35 0.070000000000000021 1.0000000180025095e-35 3.8450000000000002 80.500000000000014 1.0000000180025095e-35 1.6450000000000002 8.5000000000000018 5.1250000000000009 5.5000000000000009 3.5000000000000004 0.13000000000000003 2.1050000000000004 0.86607142857142894 0.93750000000000011 6.5000000000000009 5.5000000000000009 8.5000000000000018 1.5000000000000002 8.5000000000000018 73.500000000000014 1.5650000000000002
decision_type=2 2 2 2 2 2 2 2 2 2 2 2 2 2 2 2 2 2 2 2 2 2 2 2 2 2 2 2 2 2
left_child=1 -1 3 14 6 9 15 8 12 -5 21 27 17 -11 -3 16 22 -6 -15 -12 -21 28 -4 -18 -13 -14 -23 -10 -7 -8
right_child=-2 2 4 5 7 10 29 -9 11 13 19 24 25 18 -16 -17 23 -19 -20 20 -22 26 -24 -25 -26 -27 -28 -29 -30 -31
leaf_value=0.091131784970114621 0.091131784970114621 -0.083186419234123288 -0.067332247041363855 0.066074652216352669 -0.012908409529561732 0.0014513973686133422 -0.0055089197055278672 -0.085671667654303785 -0.080694431979205727 -0.083854706613034513 0.045958726320113136 0.034442757120569024 0.0019978164179848558 -0.048022645894422511 0.053909212986295467 -0.09062335594598557 -0.010215609537894335 -0.051742666140892957 -0.020106305578966796 -0.031862351553224748 0.070782408342677947 0.0903632602205338 -0.086071031331316578 -0.063434350250643187 -0.04485265414134143 0.059196544074247862 0.050773561968655491 -0.0039951294663170536 0.055856813682945532 0.086203895617138052
leaf_weight=2238.0305439829826 33462.95310780406 1319.7424654960632 842.35732400417328 111.07588383555412 537.97291167080402 105.44582308828831 12.197758197784422 1473.4538514912128 1222.9641296714544 214.84189882874489 74.016589105129242 54.395990028977394 168.29967013001442 1107.3049786984921 21.049881309270859 19229.534401550889 127.43673974275589 415.4700977653265 600.12036859989166 348.37135571241379 36.586093097925186 149.45757892727852 11860.787067115307 280.4099687486887 143.49804183840752 80.783079296350479 169.70825745165348 21.255367413163185 40.164868474006653 46.345095723867416
leaf_count=6974 104275 6432 3956 373 2238 420 50 7221 5914 1039 262 200 672 4979 73 95269 530 1874 2534 1499 121 468 58179 1310 638 279 595 87 140 148
internal_value=6.68565e-07 -0.0708309 -0.0797119 -0.0384277 -0.0845708 -0.0191093 -0.0875147 -0.0614097 -0.0478922 -0.0373366 0.0210123 -0.0716546 -0.0193955 -0.0433121 -0.0810341 -0.0877946 -0.0836457 -0.0298307 -0.0382107 -0.0111304 -0.0221071 0.0527537 -0.0848284 -0.0468055 -0.0230564 0.0205486 0.0693125 -0.0793842 0.0164584 0.067095
internal_weight=76516 43053.1 40815 4297.89 36517.2 2957.09 32399.1 4118.09 2644.64 2033.34 923.751 1442.11 1202.53 1922.27 1340.79 32340.5 13111 953.443 1707.43 458.974 384.957 464.777 12703.1 407.847 197.894 249.083 319.166 1244.22 145.611 58.5429
internal_count=308749 204474 197500 18935 178565 12430 159442 19123 11902 8925 3505 6839 5063 8552 6505 159244 63975 4112 7513 1882 1620 1623 62135 1840 838 951 1063 6001 560 198
is_linear=0
shrinkage=0.05


Tree=3
num_leaves=31
num_cat=0
split_feature=13 3 3 11 11 10 3 12 10 3 11 10 12 10 3 10 12 12 2 2 2 1 0 2 1 2 3 3 3 1
split_gain=180222 12934.7 2098.1 1630.29 1009.04 1503.58 930.561 992.413 771.759 2117.07 406.313 931.735 401.969 295.534 292.625 251.801 250.552 203.099 193.601 176.024 167.598 159.739 145.987 137.494 137.303 135.598 132.704 86.3488 84.6157 66.951
threshold=1.0000000180025095e-35 2.5000000000000004 1.5000000000000002 1.0000000180025095e-35 1.0000000180025095e-35 1.0000000180025095e-35 8.5000000000000018 1.0000000180025095e-35 1.0000000180025095e-35 6.5000000000000009 1.0000000180025095e-35 1.0000000180025095e-35 1.0000000180025095e-35 1.0000000180025095e-35 5.5000000000000009 1.0000000180025095e-35 1.0000000180025095e-35 1.0000000180025095e-35 0.070000000000000021 3.9050000000000007 0.72500000000000009 97.500000000000014 23.500000000000004 0.69500000000000006 97.500000000000014 0.28500000000000009 4.5000000000000009 4.5000000000000009 9.5000000000000018 80.500000000000014
decision_type=2 2 2 2 2 2 2 2 2 2 2 2 2 2 2 2 2 2 2 2 2 2 2 2 2 2 2 2 2 2
left_child=1 2 10 8 5 25 7 14 -3 16 11 18 -6 20 29 19 24 -7 -1 -9 -14 28 -16 -13 26 -4 -10 -17 -11 -5
right_child=-2 3 4 6 12 17 -8 15 9 21 -12 23 13 -15 22 27 -18 -19 -20 -21 -22 -23 -24 -25 -26 -27 -28 -29 -30 -31
leaf_value=0.035697246599156532 0.087549093760538876 -0.086983872579117882 -0.038001783258971397 0.0090117042413013874 0.041589829967915895 0.025940645271087283 -0.08041019147247945 -0.07530362328998591 0.0031930772486085963 -0.067938548422911457 0.057625206353146198 0.054595700763119065 -0.06426845378680647 0.029586745024492718 0.019622480250148705 0.013290715012941086 -0.052053543489696499 -0.025110181941809442 -0.070204150912343791 0.00023475877943111858 0.0082852952104842531 0.035200119014827662 -0.050913112118507645 0.0094546899213934551 0.060617222711943891 -0.078436132148108476 -0.034011034064069523 -0.047929000837670613 -0.086280991612284932 0.043325770480068394
leaf_weight=50.773758620023727 33099.592632055283 25499.467237055302 246.21852131187916 683.39228221774101 616.35327449440956 601.52590239048004 1616.8000940233469 1126.6605344265699 720.21458362042904 731.40120267868042 1153.2488507628441 664.69952820241451 267.05091142654419 225.58558934926987 94.980429887771606 131.72628164291382 367.09787485003471 288.15167796611786 287.66087226569653 82.788897946476936 113.39242434501648 28.398625671863556 322.20606906712055 226.05508878827095 75.361115157604218 1313.2723408043385 359.23966732621193 102.35452103614807 4479.8035038709641 179.48674407601357
leaf_count=184 104275 127564 1095 2697 2227 2283 7953 5465 2923 3500 3982 2322 1249 846 365 520 1691 1240 1367 334 448 107 1461 892 261 6396 1591 464 22402 645
internal_value=1.64268e-06 -0.0679332 -0.000233018 -0.079131 -0.0239439 -0.0424619 -0.0503618 -0.0325243 -0.0830016 -0.0679835 0.0363076 0.0163071 0.0131587 -0.0157569 -0.000473282 -0.0609459 -0.0160712 0.00940614 -0.0543163 -0.0701329 -0.0426436 -0.0830621 -0.0348543 0.0431398 -0.00463297 -0.0720522 -0.00918836 -0.0134783 -0.0837066 0.0161493
internal_weight=75755 42655.4 6053.99 36601.4 3671.55 2449.17 4340.4 2723.6 32261 6761.52 2382.44 1229.19 1222.38 606.029 1280.07 1443.53 1521.91 889.678 338.435 1209.45 380.443 5239.6 417.186 890.755 1154.82 1559.49 1079.45 234.081 5211.2 862.879
internal_count=308749 204474 24531 179943 15784 11014 19904 11951 160039 32475 8747 4765 4770 2543 5168 6783 6466 3523 1551 5799 1697 26009 1826 3214 4775 7491 4514 984 25902 3342
is_linear=0
shrinkage=0.05


Tree=4
num_leaves=31
num_cat=0
split_feature=13 6 3 6 1 2 3 10 6 10 4 2 2 1 7 2 6 2 6 2 7 1 1 0 6 10 0 2 7 4
split_gain=164906 21378.1 2707.94 1249.46 792.376 513.523 451.93 933.772 531.554 433.158 249.003 228.631 165.318 154.982 143.178 748.904 172.891 135.562 131.771 94.6606 73.8629 34.382 33.8928 26.3747 25.1935 24.4558 23.4706 21.4294 25.1565 19.4306
threshold=1.0000000180025095e-35 1.0000000180025095e-35 2.5000000000000004 2.5000000000000004 98.500000000000014 0.070000000000000021 8.5000000000000018 1.0000000180025095e-35 8.5000000000000018 1.0000000180025095e-35 0.93750000000000011 2.1650000000000005 6.5850000000000009 11.500000000000002 1.5000000000000002 2.0050000000000003 5.5000000000000009 1.6450000000000002 3.5000000000000004 8.4250000000000025 1.5000000000000002 97.500000000000014 98.500000000000014 56.500000000000007 3.5000000000000004 1.0000000180025095e-35 33.500000000000007 1.5650000000000002 1.5000000000000002 1.3095238095238095
decision_type=2 2 2 2 2 2 2 2 2 2 2 2 2 2 2 2 2 2 2 2 2 2 2 2 2 2 2 2 2 2
left_child=1 -1 3 17 6 24 7 8 12 11 20 13 -4 -7 15 -9 -16 22 -12 -10 -11 -8 23 -3 25 -5 -19 28 -6 -24
right_child=-2 2 4 5 27 9 21 14 19 10 18 -13 -14 -15 16 -17 -18 26 -20 -21 -22 -23 29 -25 -26 -27 -28 -29 -30 -31
leaf_value=0.086354653747778551 0.084401499788754109 -0.082311067478917699 -0.078659085281825386 0.030049086823342442 0.096070682648917466 -0.072475847597884877 -0.083471684362941889 -0.049012379531304349 -0.02296720287562317 -0.0086226241039042573 0.007818232844256796 0.066132367497974506 0.076264608609757367 -0.033659346114867129 -0.076687049731175461 0.088903882134210535 -0.038433893795397543 -0.029840358178622906 0.063071286458329726 0.056807611809541761 -0.052229805062892404 -0.020756286700224013 0.058228872295822534 -0.05435643877572717 0.088599085264018829 0.080341075952201857 0.085129742816149989 0.082728875791481735 -0.027302290402408731 -0.050631860189298841
leaf_weight=2202.3500373661518 32628.984490036964 1143.7544036060572 12879.631920203567 61.511560291051865 6.7755815088748941 313.42462596297264 20333.865310490131 467.45008745789528 261.01705005764961 400.22517628967762 249.34095932543278 51.630765974521637 17.242660358548164 1432.2313717007637 409.47333656251431 124.68746261298656 1060.0665615051985 6.395990043878558 190.2329236716032 43.363631635904312 128.21610414981842 21.877085447311401 4.3941750824451438 91.096543312072754 71.3427674472332 39.821710497140884 14.508966624736784 71.837299793958664 10.589788839221001 61.03162032365799
leaf_count=6974 104275 5698 64365 226 21 1513 103125 2154 1131 1643 987 173 57 6308 1996 410 4783 27 648 151 580 96 16 429 224 128 46 230 46 289
internal_value=2.07509e-06 -0.0653028 -0.0736598 -0.0359756 -0.0781547 -0.0178152 -0.0785274 -0.0720232 -0.0769106 -0.0230388 0.0039255 -0.0375617 -0.078452 -0.0406287 -0.0407287 -0.0199711 -0.0490928 -0.0763599 0.0317299 -0.0116021 -0.0192031 -0.0834043 -0.0783907 -0.0802488 0.0658377 0.0498127 0.049954 0.0706798 0.0208351 -0.0433205
internal_weight=74798.4 42169.4 39967 4259.16 35707.9 2937.98 35618.7 15262.9 13201.3 2765.3 968.015 1797.29 12896.9 1745.66 2061.68 592.138 1469.54 1321.18 439.574 304.381 528.441 20355.7 1300.28 1234.85 172.676 101.333 20.905 89.2027 17.3654 65.4258
internal_count=308749 204474 197500 18935 178565 12430 178268 75047 65704 11852 3858 7994 64422 7821 9343 2564 6779 6505 1635 1282 2223 103221 6432 6127 578 354 73 297 67 305
is_linear=0
shrinkage=0.05


Tree=5
num_leaves=31
num_cat=0
split_feature=13 6 3 6 11 11 3 12 1 2 12 2 1 9 3 2 7 7 6 2 2 3 1 2 2 9 1 9 2 7
split_gain=151356 19589.4 2543.63 1153.9 871.894 698.668 454.793 598.267 441.569 388.702 331.786 186.316 166.844 132.128 129.071 456.57 341.991 174.765 131.698 125.526 124.215 117.726 99.2811 91.2567 117.81 58.693 52.7134 48.5808 44.5446 31.7643
threshold=1.0000000180025095e-35 1.0000000180025095e-35 2.5000000000000004 2.5000000000000004 1.0000000180025095e-35 1.0000000180025095e-35 9.5000000000000018 1.0000000180025095e-35 98.500000000000014 0.070000000000000021 1.0000000180025095e-35 3.4250000000000003 80.500000000000014 1.0000000180025095e-35 6.5000000000000009 2.6450000000000005 1.5000000000000002 1.5000000000000002 6.5000000000000009 7.0950000000000006 1.6450000000000002 5.5000000000000009 71.500000000000014 0.13000000000000003 2.1050000000000004 8.5000000000000018 97.500000000000014 7.5000000000000009 0.36500000000000005 2.5000000000000004
decision_type=2 2 2 2 2 2 2 2 2 2 2 2 2 2 2 2 2 2 2 2 2 2 2 2 2 2 2 2 2 2
left_child=1 -1 3 20 8 9 7 12 14 -5 28 27 19 -11 15 18 -17 -16 -4 -6 -3 -13 -15 -12 -25 -14 -19 -9 -7 -8
right_child=-2 2 4 5 6 10 29 11 -10 13 23 21 25 22 17 16 -18 26 -20 -21 -22 -23 -24 24 -26 -27 -28 -29 -30 -31
leaf_value=0.083348276228773208 0.081617115509025895 -0.075480183111502355 -0.077745254370732236 0.05831373837192233 -0.029883653449023953 0.06806799627893087 -0.018282762509498573 -0.074757502184163618 0.060001998430838699 -0.076126948433925312 0.040146504084875551 0.032767841575907661 0.0046262652979946715 -0.041776572513727933 0.085756074957189246 0.073000171308558987 -0.045411941191294977 -0.08085476287018481 -0.044974108149758246 0.038387066328217423 0.047777430861007247 -0.044996590251379844 -0.014987598135486557 -0.029735670046033381 0.065210262407475503 0.056592428618900729 -0.013440472069742193 -0.03952137012786823 0.036365702789626329 -0.077227000334720755
leaf_weight=2168.5433785021305 32069.062855839729 1283.3287182599306 8577.753988802433 109.0716450214386 872.73200318217278 184.66446106135845 23.236467763781548 1054.4986248612404 57.653570085763931 210.24264280498028 73.090242817997932 67.610824778676033 167.94264456629753 1206.6342758089304 15.768080830574034 68.359423667192459 564.58149138092995 21520.520968392491 317.93716245889664 72.958003893494606 20.771083772182465 173.71575133502483 484.81745348870754 347.62784408032894 36.06061016023159 80.32329235970974 29.036375567317009 107.8223212659359 277.02645108103752 1395.1510658413172
leaf_count=6974 104275 6432 43743 373 3845 616 106 5289 198 1039 262 253 672 5463 52 235 2620 110970 1499 267 73 796 2050 1499 121 279 125 501 1007 7115
internal_value=3.61553e-06 -0.0629577 -0.07101 -0.0343938 -0.0754178 -0.0169762 -0.053491 -0.0410576 -0.0782445 -0.0334798 0.0191546 -0.0631883 -0.01504 -0.0387446 -0.0785008 -0.0736545 -0.0326231 -0.0806422 -0.076574 -0.0246167 -0.073517 -0.0232099 -0.0340981 -0.0110581 -0.0208123 0.0214393 -0.0807639 -0.0714888 0.0490458 -0.0762614
internal_weight=73638.5 41569.5 39400.9 4233.34 35167.6 2929.24 4015.99 2597.6 31151.6 2010.77 918.47 1403.65 1193.96 1901.69 31094 9528.63 632.941 21565.3 8895.69 945.69 1304.1 241.327 1691.45 456.779 383.688 248.266 21549.6 1162.32 461.691 1418.39
internal_count=308749 204474 197500 18935 178565 12430 19123 11902 159442 8925 3505 6839 5063 8552 159244 48097 2855 111147 45242 4112 6505 1049 7513 1882 1620 951 111095 5790 1623 7221
is_linear=0
shrinkage=0.05


Tree=6
num_leaves=31
num_cat=0
split_feature=13 6 2 11 4 10 7 6 6 6 7 2 2 2 4 12 7 2 7 10 11 1 4 2 4 2 11 4 10 7
split_gain=139293 17996.7 2168.45 1359.63 700.826 677.19 1182.44 555.519 501.938 311.16 427.925 243.863 236.014 191.859 168.975 290.912 131.532 117.276 115.163 102.717 171.806 97.498 95.1314 68.2982 58.5804 56.8037 53.2468 77.3714 71.9377 48.0389
threshold=1.0000000180025095e-35 1.0000000180025095e-35 0.36500000000000005 1.0000000180025095e-35 2.0625000000000004 1.0000000180025095e-35 2.5000000000000004 3.5000000000000004 2.5000000000000004 2.5000000000000004 1.5000000000000002 0.070000000000000021 2.0050000000000003 2.1050000000000004 5.1833333333333345 1.0000000180025095e-35 2.5000000000000004 4.9650000000000007 1.5000000000000002 1.0000000180025095e-35 1.0000000180025095e-35 97.500000000000014 1.3095238095238095 1.7650000000000003 0.93750000000000011 0.070000000000000021 1.0000000180025095e-35 0.93750000000000011 1.0000000180025095e-35 3.5000000000000004
decision_type=2 2 2 2 2 2 2 2 2 2 2 2 2 2 2 2 2 2 2 2 2 2 2 2 2 2 2 2 2 2
left_child=1 -1 7 5 8 -4 9 11 12 13 -11 -3 -5 -7 15 18 17 -10 -6 20 25 29 26 -17 -21 -9 28 -28 -13 -8
right_child=-2 2 3 4 14 6 21 19 16 10 -12 22 -14 -15 -16 23 -18 -19 -20 24 -22 -23 -24 -25 -26 -27 27 -29 -30 -31
leaf_value=0.0806825620603666 0.079139120836145008 0.045242099244673387 -0.078500115127129344 -0.074531611641647247 0.012170225616597342 -0.073795866348156547 -0.066007495685814085 0.084836688021463325 0.0010493642708729802 0.010063803906841855 -0.040652325228514002 -0.052688700189672914 0.074921356304392991 0.092834430731259229 -0.074628581659451729 -0.075941543622327079 -0.035547231971316096 0.084906949799946729 -0.036447518128917861 0.01326915132791779 0.062505430239121501 0.013639425278941348 -0.049454945940007364 -0.050728928665226131 0.082385270401367838 -0.029240084984466008 -0.047231561597524285 0.034505985081628346 -0.00083095347413276652 -0.078133268795978039
leaf_weight=2129.1709004640579 31435.508866608143 99.873865768313408 25395.050515651703 423.46959467232227 153.9379219263792 443.97576519846916 1045.8439884036779 11.917888462543486 929.50896842777729 674.66432584822178 1084.5326992720366 157.21965944766998 28.173547729849815 17.974196434020996 1229.672433540225 720.34372389316559 254.73464781045914 43.651171579957008 583.52230821549892 39.487200871109962 115.97511717677116 30.889715269207954 593.52381929755211 428.31760968267918 137.09826445579529 129.34928125143051 42.832202956080437 89.340753704309464 116.37974682450294 3729.5653973221779
leaf_count=6974 104275 354 133228 2118 613 2226 5299 38 3770 2716 5058 746 94 57 6355 3706 1161 142 2665 154 396 122 2804 2060 442 583 193 327 473 19600
internal_value=5.03188e-06 -0.0608467 -0.0686231 -0.0710236 -0.046174 -0.0746989 -0.0609623 -0.0103445 -0.0201392 -0.0307922 -0.0212023 -0.0292537 -0.0652087 -0.0673124 -0.0602079 -0.0508062 -0.00356173 0.0048108 -0.026299 0.0375651 0.0174076 -0.0749049 -0.0366992 -0.0665402 0.0669299 -0.0196161 -0.0180413 0.00801797 -0.0306302 -0.0754777
internal_weight=72315.5 40880 38750.8 37217.8 4795.33 32422.5 7027.45 1533 1679.54 2221.15 1759.2 1099.17 451.643 461.95 3115.79 1886.12 1227.89 973.16 737.46 433.828 257.242 4806.3 999.296 1148.66 176.585 141.267 405.772 132.173 273.599 4775.41
internal_count=308749 204474 197500 190990 22684 168306 35078 6510 7285 10057 7774 4897 2212 2283 15399 9044 5073 3912 3278 1613 1017 25021 4543 5766 596 621 1739 520 1219 24899
is_linear=0
shrinkage=0.05


Tree=7
num_leaves=31
num_cat=0
split_feature=13 6 3 6 1 10 3 10 6 4 3 4 9 7 1 3 4 6 3 1 4 7 6 1 6 1 6 0 4 10
split_gain=128486 16568.6 2282.09 995.827 658.733 433.643 420.912 848.027 471.733 309.161 184.747 223.359 128.275 124.366 123.176 122.762 119.35 94.0023 74.2275 70.0511 66.4887 61.7456 38.6594 30.7497 30.295 30.0781 23.3009 20.8401 20.0849 18.5956
threshold=1.0000000180025095e-35 1.0000000180025095e-35 2.5000000000000004 2.5000000000000004 98.500000000000014 1.0000000180025095e-35 8.5000000000000018 1.0000000180025095e-35 8.5000000000000018 0.93750000000000011 1.5000000000000002 -0.16666666666666682 1.5000000000000002 1.5000000000000002 11.500000000000002 1.5000000000000002 1.9375000000000002 2.5000000000000004 5.5000000000000009 71.500000000000014 1.9375000000000002 1.5000000000000002 3.5000000000000004 98.500000000000014 5.5000000000000009 97.500000000000014 3.5000000000000004 56.500000000000007 1.3095238095238095 1.0000000180025095e-35
decision_type=2 2 2 2 2 2 2 2 2 2 2 2 2 2 2 2 2 2 2 2 2 2 2 2 2 2 2 2 2 2
left_child=1 -1 3 23 6 10 7 8 17 21 11 -5 -9 -14 -12 26 -16 -4 -10 -13 -17 22 -7 27 -23 -8 -11 -3 -25 -29
right_child=-2 2 4 5 -6 9 25 12 18 15 14 19 13 -15 16 20 -18 -19 -20 -21 -22 24 -24 28 -26 -27 -28 29 -30 -31
leaf_value=0.07830523524829075 0.076921968070072289 -0.072213969267627881 -0.076540976734855978 -0.070827663710904515 0.066003460384492965 -0.016526496022889883 -0.076020236156655902 -0.06503576269594126 0.031467847465733965 0.048605916808437413 -0.073551234648128447 -0.0020217826072631579 -0.0078656493541093119 -0.037762575234568004 -0.037363086401399119 0.0087047591877749911 0.035805540506239478 -0.067552296055192917 -0.023420380069363013 0.044032553630550135 0.084933717003776041 -0.076813093924259501 0.018128902874089144 0.06540254522051514 -0.026956105056023416 -0.016928932647269707 0.081287609130183403 -0.032278347157364565 -0.042505219530520805 -0.082923726704823869
leaf_weight=2085.2297283709049 30742.027202248573 1111.2683097869158 4747.479841247201 109.72731181979179 87.844280511140823 288.65443770587444 19196.753396615386 294.88207471370697 86.504061803221703 100.9013132750988 231.25884959101677 366.68106546998024 484.22876404225826 1235.0366897732019 982.28815574944019 264.46362581849098 59.085596650838852 7509.3237408101559 213.90869751572609 106.56427149474621 32.074740618467331 50.749579951167107 111.58115284144878 4.6559922248125067 76.245025798678398 21.559097319841385 118.69495870172977 62.571579650044441 58.409833624958992 25.515680432319641
leaf_count=6974 104275 5770 25334 543 297 1214 103125 1457 329 359 1172 1521 2099 5787 4471 1046 222 39088 953 384 103 246 431 17 334 96 384 298 289 131
internal_value=6.36288e-06 -0.0589243 -0.066447 -0.0315041 -0.0707392 -0.0153633 -0.0710947 -0.0646859 -0.0695167 0.0104259 -0.029864 -0.00655396 -0.0345679 -0.0293421 -0.040542 0.0379342 -0.0332116 -0.0710339 -0.00761528 0.00834862 0.01695 -0.0165034 -0.00686496 -0.0685689 -0.04688 -0.0759539 0.0662708 -0.0703583 -0.0345387 -0.0469485
internal_weight=70866.2 40124.1 38038.9 4161.39 33877.5 2898.97 33789.7 14571.4 12557.2 1043.36 1855.61 582.973 2014.15 1719.27 1272.63 516.135 1041.37 12256.8 300.413 473.245 296.538 527.23 400.236 1262.42 126.995 19218.3 219.596 1199.36 63.0658 88.0873
internal_count=308749 204474 197500 18935 178565 12430 178268 75047 65704 4117 8313 2448 9343 7886 5865 1892 4693 64422 1282 1905 1149 2225 1645 6505 580 103221 743 6199 306 429
is_linear=0
shrinkage=0.05


Tree=8
num_leaves=31
num_cat=0
split_feature=11 10 12 6 12 2 6 6 10 7 2 2 6 6 2 4 6 6 2 6 4 4 4 2 6 7 2 2 0 0
split_gain=17627.7 17382 1547.28 1260.16 1083.55 1128.16 1203.38 862.443 759.448 725.687 661.616 482.096 485.756 300.245 406.491 202.82 187.836 295.61 724.918 180.881 173.346 164.642 127.611 124.273 124.148 123.469 242.675 115.36 117.735 114.232
threshold=1.0000000180025095e-35 1.0000000180025095e-35 1.0000000180025095e-35 5.5000000000000009 1.0000000180025095e-35 2.2250000000000005 1.0000000180025095e-35 16.000000000000004 1.0000000180025095e-35 3.5000000000000004 0.41000000000000009 18.035000000000004 1.0000000180025095e-35 1.0000000180025095e-35 2.2250000000000005 -1.9374999999999998 1.0000000180025095e-35 2.5000000000000004 1.5650000000000002 3.5000000000000004 0.81666666666666654 2.4642857142857149 5.2678571428571441 0.87500000000000011 3.5000000000000004 1.5000000000000002 4.205000000000001 0.070000000000000021 56.500000000000007 42.500000000000007
decision_type=2 2 2 2 2 2 2 2 2 2 2 2 2 2 2 2 2 2 2 2 2 2 2 2 2 2 2 2 2 2
left_child=1 3 7 10 16 6 -6 11 24 13 27 12 -3 -4 -15 -9 -2 18 -18 23 -10 29 -5 -12 -8 -7 -27 -1 -29 -14
right_child=4 2 9 22 5 25 8 15 20 -11 19 -13 21 14 -16 -17 17 -19 -20 -21 -22 -23 -24 -25 -26 26 -28 28 -30 -31
leaf_value=0.045513768224336379 0.075886014822101333 0.076256777797940684 0.076883757948597253 -0.031523579212240124 0.076267800284708642 0.079480561097694788 -0.0393656699719813 -0.0090680629371211064 -0.023741072417169086 -0.038656984335647231 -0.046726653203747151 0.073725477011672313 0.029086458323444298 -0.019159144923780822 0.034207728446467862 0.017125072936211554 -0.046371765501659404 0.052138852352454405 0.064947886272666233 -0.042960899064248617 0.045430797465839549 0.040710948096995429 -0.023328609005929608 -0.06017195028217022 -0.0072544521029377007 0.013070663514208162 0.048444062108109448 -0.021017265726437348 0.041801375888016329 0.0029510475471391864
leaf_weight=81.785135477781296 758.93496268987656 661.66549548506737 163.14576280117035 12584.365177854896 449.98192128539085 236.66783879697323 1218.1562164872885 999.05164973437786 109.74591711163521 1214.2668727934361 2480.4977749437094 858.49588668346405 5989.0569766610861 778.29293349385262 658.90085539221764 2839.8112390786409 261.6969905346632 10274.72902071476 331.50341898202896 3927.8902862071991 518.40520891547203 3519.5964140594006 7631.0251741856337 5595.3065912425518 399.7822505235672 591.01980718970299 2699.2010956555605 962.9742908924818 80.850211396813393 449.46590562164783
leaf_count=297 2606 2262 554 61888 1539 809 5921 4614 483 6091 12600 2998 24118 3477 2621 12103 1256 38356 1179 19797 1948 13830 36753 29512 1769 2487 10280 4388 320 1893
internal_value=8.36321e-06 -0.0148384 0.0245628 -0.0362635 0.0428244 0.0259856 0.00163626 0.030824 -0.0133154 -0.00951059 -0.0483246 0.0376853 0.0347718 0.0126044 0.00530762 0.0103084 0.0518369 0.0501575 0.015838 -0.0517617 0.0333456 0.0320154 -0.0284301 -0.0560422 -0.0314312 0.044599 0.04209 -0.0116711 -0.0161516 0.027262
internal_weight=69326.3 51476.4 18131.7 33344.7 17849.8 6222.96 2696.07 15317.1 2246.09 2814.61 13129.3 11478.3 10619.8 1600.34 1437.19 3838.86 11626.9 10867.9 593.2 12003.7 628.151 9958.12 20215.4 8075.8 1617.94 3526.89 3290.22 1125.61 1043.82 6438.52
internal_count=308749 240116 74561 165555 68633 25236 11660 61818 10121 12743 66914 45101 42103 6652 6098 16717 43397 40791 2435 61909 2431 39841 98641 42112 7690 13576 12767 5005 4708 26011
is_linear=0
shrinkage=0.05


Tree=9
num_leaves=31
num_cat=0
split_feature=13 6 3 6 11 11 10 3 12 10 3 12 7 12 3 7 10 12 9 6 0 7 10 3 3 0 8 8 3 3
split_gain=116620 14405.8 2138.31 890.423 701.252 535.39 686.928 432.989 470.243 306.519 900.804 274.696 163.26 145.726 143.514 189.027 141.355 129.613 110.212 99.9464 97.996 75.7355 71.9095 69.4585 68.4394 62.0691 51.418 33.7021 32.6399 31.2063
threshold=1.0000000180025095e-35 1.0000000180025095e-35 2.5000000000000004 2.5000000000000004 1.0000000180025095e-35 1.0000000180025095e-35 1.0000000180025095e-35 9.5000000000000018 1.0000000180025095e-35 1.0000000180025095e-35 6.5000000000000009 1.0000000180025095e-35 1.5000000000000002 1.0000000180025095e-35 5.5000000000000009 1.5000000000000002 1.0000000180025095e-35 1.0000000180025095e-35 7.5000000000000009 5.5000000000000009 28.500000000000004 1.5000000000000002 1.0000000180025095e-35 9.5000000000000018 5.5000000000000009 33.500000000000007 8.5000000000000018 7.5000000000000009 1.5000000000000002 1.5000000000000002
decision_type=2 2 2 2 2 2 2 2 2 2 2 2 2 2 2 2 2 2 2 2 2 2 2 2 2 2 2 2 2 2
left_child=1 -1 3 -3 9 6 26 8 14 -4 17 29 -12 21 19 -16 -13 18 -11 -6 24 -8 -22 -14 -10 -19 -5 -15 -28 -7
right_child=-2 2 4 5 7 11 13 -9 20 10 12 16 23 27 15 -17 -18 25 -20 -21 22 -23 -24 -25 -26 -27 28 -29 -30 -31
leaf_value=0.074255043308387905 0.074481444488998821 -0.065530993440481564 -0.073503204767071381 -0.057820080201152882 -0.012053956750650782 0.059080084462372284 0.028068836514493292 -0.070977303293849478 0.0074585863834029141 -0.024307207376232751 0.098270203265934622 -0.035543729513634145 -0.056893131352227858 -0.033777751782303821 0.10524116789640742 -0.039881117988925879 0.020721798431940757 -0.019952468029677692 0.014929691239479055 0.028213709488856466 -0.068052775049130501 -0.021797559029141805 -0.027417441635593801 -0.073884045729870493 -0.046202331557599938 -0.06605048124406887 0.032891283260297138 0.019142480544152497 -0.035407239430167867 0.032753762639139698
leaf_weight=1987.0173825323582 29798.396607726812 1227.7851810306311 22924.253601193428 1024.7307299077511 440.81246979534626 203.43105725944042 472.6885489076376 1359.1782837957144 84.637698829174042 729.28814618289471 14.223022401332853 250.86529895663261 705.40132412314415 209.50629638135433 23.530412197113037 483.57131944596767 201.11447218060493 108.6907903701067 237.17397251725197 236.91724982857704 931.13993817567825 90.762004047632217 123.28801946341991 4083.4324946850538 199.42600485682487 222.51013396680355 20.749795272946358 35.129939019680023 111.45581230521202 252.00808809697628
leaf_count=6974 104275 6505 127564 5095 1873 701 1781 7221 350 3282 44 1113 3554 923 73 2208 769 489 964 909 4972 393 563 22411 954 1134 78 136 519 922
internal_value=9.87318e-06 -0.0568987 -0.0639406 -0.0298917 -0.068183 -0.0146582 -0.0293272 -0.0482263 -0.0359715 -0.0708525 -0.0608923 0.0171075 -0.0708789 0.00604545 -0.0130299 -0.0331472 -0.0105076 -0.0239288 -0.0146783 0.00202261 -0.0562794 0.0200362 -0.0633015 -0.0713813 -0.0302139 -0.0509224 -0.054034 -0.0261784 -0.0246877 0.0445129
internal_weight=68793.1 38994.7 37007.7 4100.23 32907.5 2872.44 1965.02 3882.5 2523.32 29025 6100.72 907.419 4803.06 808.087 1184.83 507.102 451.98 1297.66 966.462 677.73 1338.49 563.451 1054.43 4788.83 284.064 331.201 1156.94 244.636 132.206 455.439
internal_count=308749 204474 197500 18935 178565 12430 8925 19123 11902 159442 31878 3505 26009 3233 5063 2281 1882 5869 4246 2782 6839 2174 5535 25965 1304 1623 5692 1059 597 1623
is_linear=0
shrinkage=0.05


Tree=10
num_leaves=31
num_cat=0
split_feature=13 6 3 6 11 11 3 1 4 1 3 6 9 7 6 4 3 6 1 9 1 9 6 9 3 4 4 1 1 7
split_gain=108050 13320 2042.79 830.616 687.408 487.235 411.476 353.986 243.304 159.571 144.093 262.236 139.578 139.571 109.835 109.213 175.351 98.9042 98.1049 92.8604 88.0678 85.4837 84.9681 82.6286 71.4033 70.5005 61.0886 56.4466 46.5334 30.8462
threshold=1.0000000180025095e-35 1.0000000180025095e-35 2.5000000000000004 2.5000000000000004 1.0000000180025095e-35 1.0000000180025095e-35 9.5000000000000018 98.500000000000014 1.9375000000000002 81.500000000000014 6.5000000000000009 6.5000000000000009 7.5000000000000009 1.5000000000000002 2.5000000000000004 0.93750000000000011 1.5000000000000002 8.5000000000000018 87.500000000000014 2.5000000000000004 19.500000000000004 1.0000000180025095e-35 3.5000000000000004 1.0000000180025095e-35 1.5000000000000002 -1.0000000180025095e-35 0.93750000000000011 70.500000000000014 97.500000000000014 2.5000000000000004
decision_type=2 2 2 2 2 2 2 2 2 2 2 2 2 2 2 2 2 2 2 2 2 2 2 2 2 2 2 2 2 2
left_child=1 -1 3 -3 7 9 8 10 20 23 11 14 17 -12 -4 27 -17 -10 -14 -13 -6 -22 -18 -5 26 -25 -11 -7 -15 -8
right_child=-2 2 4 5 6 15 29 -9 12 24 13 19 18 28 -16 16 22 -19 -20 -21 21 -23 -24 25 -26 -27 -28 -29 -30 -31
leaf_value=0.072519900066174398 0.072725330337928537 -0.063559586029561008 -0.071868363744279781 -0.066145177507954608 -0.057932369859649405 -0.024696985021806239 -0.010624461966594024 0.056039613225548672 -0.054560030823467935 -0.0065072273254539242 0.077598955609193845 -0.059818868025723108 -0.029451757380475549 -0.071901913557319272 -0.060236843038198797 0.059380555579768401 -0.010953501006580881 -0.01527749386306472 0.03318591776607719 -0.016081598670906184 -0.03977878177086424 0.010058070771714007 0.038059912425614829 -0.052800309788496438 -0.014404977874471198 -0.025067585574975737 0.062921485879691874 0.029387842381411296 -0.0078978911062049413 -0.069951330101461803
leaf_weight=1934.1704837679863 29011.969865977764 1203.1995153874159 4170.594040364027 190.22997254133224 74.689175635576248 193.32866227626801 22.283209457993507 56.4322829246521 1353.9776070713997 58.446408838033676 15.643583327531813 181.07023566961288 271.64666758477688 19533.355369269848 3953.5389503538609 256.71724662184715 253.44367028772831 181.74234968423843 81.196374177932739 368.00074362754822 107.72954750061035 427.45598343014717 135.80301222205162 291.18084870278835 264.56164534389973 1075.976665109396 69.188273131847382 64.282992646098137 28.439538046717644 1307.5083723217249
leaf_count=6974 104275 6505 23844 992 358 820 106 198 6960 239 52 935 1259 110970 21617 891 1060 790 312 1701 490 1733 495 1411 1161 4883 239 239 125 7115
internal_value=1.11259e-05 -0.055321 -0.0621531 -0.0287181 -0.0663735 -0.0140252 -0.0464881 -0.0690628 -0.0345289 -0.0280918 -0.0693127 -0.0639478 -0.0433957 -0.0716895 -0.066208 0.0163252 0.0273027 -0.0499112 -0.0150376 -0.0305051 -0.00707176 2.62196e-05 0.00614663 -0.0352702 0.000413314 -0.0309742 0.0311287 -0.011201 -0.0718089 -0.0689572
internal_weight=67137.8 38125.8 36191.7 4056.36 32135.3 2853.16 3828.23 28307.1 2498.44 1949.58 28250.6 8673.2 1888.56 19577.4 8124.13 903.576 645.964 1535.72 352.843 549.071 609.875 535.186 389.247 1557.39 392.196 1367.16 127.635 257.612 19561.8 1329.79
internal_count=308749 204474 197500 18935 178565 12430 19123 159442 11902 8925 159244 48097 9321 111147 45461 3505 2446 7750 1571 2636 2581 2223 1555 7286 1639 6294 478 1059 111095 7221
is_linear=0
shrinkage=0.05


Tree=11
num_leaves=31
num_cat=0
split_feature=13 6 11 4 10 7 6 6 7 6 6 4 12 7 12 10 7 1 0 1 6 6 1 4 0 6 1 4 6 6
split_gain=100252 12329.5 1485.7 872.576 775.094 1478.42 560.654 387.28 536.671 254.94 210.517 174.093 213.47 173.938 246.436 143.33 91.8132 88.0433 80.5467 79.7295 75.3897 63.8343 63.3546 59.5911 55.544 70.5406 80.8225 54.5163 49.3575 47.9226
threshold=1.0000000180025095e-35 1.0000000180025095e-35 1.0000000180025095e-35 2.0625000000000004 1.0000000180025095e-35 2.5000000000000004 2.5000000000000004 2.5000000000000004 1.5000000000000002 3.5000000000000004 5.5000000000000009 4.3541666666666679 1.0000000180025095e-35 1.5000000000000002 1.0000000180025095e-35 1.0000000180025095e-35 1.5000000000000002 98.500000000000014 56.500000000000007 97.500000000000014 5.5000000000000009 5.5000000000000009 80.500000000000014 2.6666666666666679 36.500000000000007 2.5000000000000004 87.500000000000014 0.81666666666666654 4.5000000000000009 5.5000000000000009
decision_type=2 2 2 2 2 2 2 2 2 2 2 2 2 2 2 2 2 2 2 2 2 2 2 2 2 2 2 2 2 2
left_child=1 -1 4 6 18 7 -4 17 9 -9 -10 12 16 14 27 -16 23 -6 24 -7 -18 -14 29 -5 -3 -26 -27 -8 -13 -15
right_child=-2 2 3 11 5 19 13 8 10 -11 -12 28 21 22 15 -17 20 -19 -20 -21 -22 -23 -24 -25 25 26 -28 -29 -30 -31
leaf_value=0.070945167458864908 0.071132215574474453 -0.070407691606927253 -0.058161086205618939 -0.008312807117381733 -0.064244121874899238 -0.067901083917676949 0.01583969577413423 -0.0012566472857547407 -0.062217797743184859 0.052737450893670851 -0.01647662224626888 0.1064023034351534 -0.062968793736710202 -0.052413929725789912 -0.033083355015464881 0.024542900203046752 -0.067535995363798215 0.070571543386707042 0.0025225881679829679 0.013145185813157531 -0.018689113288166432 -0.030064141407285912 0.01755837745055119 0.056200448257404403 -0.069418741954495253 -0.061902142944797449 -0.035692988557472688 0.052085221703043943 -0.065800978936084539 -0.015669935137372772
leaf_weight=1879.6295579075813 28199.249351739883 18122.239235937595 472.83265817165375 98.775530949234962 447.08894574642181 4365.7733214348555 146.51903606951237 652.99971680343151 416.37022963166237 328.64421054720879 635.42783297598362 4.1733586192131034 729.67702499032021 112.67037178575993 264.28445084393024 182.35782995820045 101.26722657680511 12.447488471865652 39.329319655895233 30.557795450091362 359.09389537572861 184.70383697748184 114.34799663722515 56.139334589242935 3110.4221686571836 1830.2238091230392 350.47594621777534 355.34299014508724 1419.2707550376654 417.75834910571575
leaf_count=6974 104275 106231 2492 420 2374 24899 563 2716 2128 1178 2936 13 4038 525 1195 693 501 43 185 122 1628 896 454 202 18280 10104 1806 1262 7777 1839
internal_value=1.31658e-05 -0.0538391 -0.060472 -0.0352734 -0.0646404 -0.0498958 -0.0103495 -0.0191371 -0.0097687 0.01682 -0.034584 -0.0527112 -0.0410002 0.00383933 0.0174602 -0.00955536 -0.0182298 -0.0605924 -0.0689717 -0.0673378 -0.0294341 -0.0563221 -0.0161978 0.015066 -0.0690918 -0.0645848 -0.0576899 0.0415033 -0.0652961 -0.0234749
internal_weight=65440.1 37240.8 35361.2 5019.21 30342 6889.31 2066.11 2492.98 2033.44 981.644 1051.8 2953.1 1529.66 1593.28 948.504 446.642 615.276 459.536 23452.7 4396.33 460.361 914.381 644.777 154.915 23413.4 5291.12 2180.7 501.862 1423.44 530.429
internal_count=308749 204474 197500 24498 173002 36396 9023 11375 8958 3894 5064 15475 7685 6531 3713 1888 2751 2417 136606 25021 2129 4934 2818 622 136421 30190 11910 1825 7790 2364
is_linear=0
shrinkage=0.05


Tree=12
num_leaves=31
num_cat=0
split_feature=13 6 2 11 10 7 4 6 6 2 2 6 2 4 12 7 2 7 1 10 11 2 4 4 2 2 7 1 1 6
split_gain=93161.2 11429.4 1666.38 1073.16 544.506 969.241 524.629 410.386 326.83 284.283 206.858 203.716 176.582 160.07 222.894 101.772 108.873 92.2924 75.3206 60.9835 103.946 59.0608 58.1146 50.798 48.3628 44.3012 44.3 32.5705 31.2026 30.318
threshold=1.0000000180025095e-35 1.0000000180025095e-35 0.36500000000000005 1.0000000180025095e-35 1.0000000180025095e-35 2.5000000000000004 2.0625000000000004 3.5000000000000004 2.5000000000000004 6.205000000000001 2.0050000000000003 2.5000000000000004 0.070000000000000021 5.1833333333333345 1.0000000180025095e-35 2.5000000000000004 4.2650000000000006 1.5000000000000002 97.500000000000014 1.0000000180025095e-35 1.0000000180025095e-35 1.7650000000000003 1.3095238095238095 0.93750000000000011 0.64500000000000013 0.070000000000000021 3.5000000000000004 98.500000000000014 87.500000000000014 9.5000000000000018
decision_type=2 2 2 2 2 2 2 2 2 2 2 2 2 2 2 2 2 2 2 2 2 2 2 2 2 2 2 2 2 2
left_child=1 -1 7 4 24 9 8 12 10 11 27 -6 -3 14 17 16 -10 -8 26 20 25 -16 -14 -21 28 -9 -7 -5 -4 -17
right_child=-2 2 3 6 5 18 13 19 15 -11 -12 -13 22 -15 21 29 -18 -19 -20 23 -22 -23 -24 -25 -26 -27 -28 -29 -30 -31
leaf_value=0.06951122203330766 0.069682070563101092 0.040744815739314065 -0.062350911597569329 -0.065195090665317548 -0.057866426428821116 -0.056810386955338389 0.013956419194436723 0.082721458098783104 -0.00013418390153700102 0.10755415242255391 0.076570967704888804 -0.019151437909977819 -0.015250059530499689 -0.066158651915201067 -0.066091008935614079 -0.061978304365636873 0.063771237690366009 -0.029848185464930219 0.012486165992121689 0.0084152603073441353 0.055133055267990796 -0.041678602401980319 -0.040319870059528432 0.073138363588326441 -0.069076194207918551 -0.019021538945570828 -0.069037713400065023 0.074952616626808133 -0.040724185539174798 -0.021317778111621055
leaf_weight=1823.897107064724 27367.872342944145 97.267121657729149 897.29749864339828 382.46954400837421 426.48858805000782 955.54042372107506 152.7604143768549 11.715924263000487 889.77551324665546 39.990415826439857 28.210362285375595 1671.4378386735916 393.54486189782619 1119.3849868029356 644.14465573430061 60.698603600263596 72.044072479009628 564.91961428523064 30.561985224485397 39.426694929599762 110.94942651689053 402.60268796980381 560.25649955868721 131.18789856135845 21004.971240460873 123.27447235584259 3295.6916650980711 4.1910777837038031 204.85925722122192 187.34851138293743
leaf_count=6974 104275 354 5184 2103 2283 5299 613 38 3661 140 94 7634 1739 6355 3706 297 251 2665 122 154 396 2060 2804 442 126920 583 19600 15 1124 864
internal_value=1.47322e-05 -0.0524711 -0.0589193 -0.0612353 -0.064818 -0.051999 -0.0385669 -0.00678648 -0.0158437 -0.0245045 -0.0541395 -0.0270218 -0.0234313 -0.0513691 -0.0419864 -0.00271179 0.00465258 -0.0205242 -0.0657271 0.0352125 0.0192782 -0.0567014 -0.0299759 0.0581817 -0.0685405 -0.0101912 -0.0662894 -0.063676 -0.0583311 -0.0312677
internal_weight=63694.8 36326.9 34503 33035.4 28526.8 6419.71 4508.55 1467.62 1624.74 2137.92 414.871 2097.93 1051.07 2883.81 1764.43 1209.87 961.82 717.68 4281.79 416.554 245.94 1046.75 953.801 170.615 22107.1 134.99 4251.23 386.661 1102.16 248.047
internal_count=308749 204474 197500 190990 168306 35078 22684 6510 7285 10057 2212 9917 4897 15399 9044 5073 3912 3278 25021 1613 1017 5766 4543 596 133228 621 24899 2118 6308 1161
is_linear=0
shrinkage=0.05


Tree=13
num_leaves=31
num_cat=0
split_feature=13 6 3 6 11 3 11 10 2 10 3 1 1 4 7 2 2 6 1 6 4 3 6 2 3 2 1 2 7 2
split_gain=86683.4 10606.9 1838.21 697.334 661.072 378.342 374.306 541.456 336.238 321.409 839.858 165.008 164.563 146.733 134.332 126.822 116.914 113.46 108.825 97.3338 95.7348 152.078 87.4121 75.0033 74.7301 60.6519 54.4078 52.355 51.6925 82.9424
threshold=1.0000000180025095e-35 1.0000000180025095e-35 2.5000000000000004 2.5000000000000004 1.0000000180025095e-35 8.5000000000000018 1.0000000180025095e-35 1.0000000180025095e-35 4.205000000000001 1.0000000180025095e-35 6.5000000000000009 87.500000000000014 97.500000000000014 0.81666666666666654 1.5000000000000002 0.24500000000000002 1.5350000000000004 2.5000000000000004 97.500000000000014 6.5000000000000009 0.93750000000000011 1.5000000000000002 3.5000000000000004 1.4850000000000001 5.5000000000000009 2.1050000000000004 72.500000000000014 0.070000000000000021 2.5000000000000004 5.9450000000000012
decision_type=2 2 2 2 2 2 2 2 2 2 2 2 2 2 2 2 2 2 2 2 2 2 2 2 2 2 2 2 2 2
left_child=1 -1 3 16 9 8 7 15 11 -4 12 19 17 -9 -12 27 -3 -11 -16 -6 25 -22 -15 -23 -10 26 -8 -5 29 -7
right_child=-2 2 4 6 5 28 20 13 24 10 14 -13 -14 22 18 -17 -18 -19 -20 -21 21 23 -24 -25 -26 -27 -28 -29 -30 -31
leaf_value=0.06820150685350411 0.068358004336201261 -0.061069315380043968 -0.067407373003109936 0.025489171541082569 -0.047893046276789926 -0.045135848062066532 -0.034653107438628462 -0.012893416429307691 0.048729505380282381 -0.056286702883885167 0.090050272668309325 0.0063686893456687257 0.05397537995774615 0.0079313001740571234 -0.06545185651044709 -0.058829853470540906 0.042869191035826981 -0.015355352647398603 0.033469085220002227 -0.016602921730263297 0.055622518995089881 -0.0036038762591461397 0.056916126112534382 0.058502724399721054 -0.00036052797676466093 0.048357542624404164 0.023945789771321363 -0.030176789487754277 -0.06445099813938264 0.10439755220744551
leaf_weight=1767.4086589515209 26524.462111949921 1096.9897425174713 20460.176248580217 49.17573244869709 1422.8165685385466 50.572011351585388 168.45406703650951 432.89127792418003 114.33464157581329 204.7903088927269 14.048728317022322 192.60819971561432 74.905014008283615 201.60181355476379 4296.4732528030872 749.19604855775833 27.73943167924881 977.10966040194035 27.984134495258331 301.13829439878464 249.81566366553307 329.34037324786186 166.11401782929897 57.030057147145271 240.81354396045208 36.942306742072105 51.789827466011047 299.46437953412533 1327.2368720918894 11.355729907751082
leaf_count=6974 104275 6398 127564 185 7531 260 734 1839 410 1099 44 824 270 810 25858 4058 107 4500 107 1385 891 1358 584 197 1020 130 195 1449 7653 40
internal_value=1.62818e-05 -0.0511902 -0.0574643 -0.0252661 -0.0617079 -0.0418125 -0.0118749 -0.0244339 -0.0292429 -0.0645033 -0.0538841 -0.0375235 -0.0178928 0.00683492 -0.0643103 -0.047237 -0.0585059 -0.0224476 -0.0648117 -0.0424273 0.0148136 0.0252204 0.03006 0.00556334 0.0154433 -0.0109293 -0.0208737 -0.0223251 -0.0623676 -0.0177158
internal_weight=61924.8 35400.3 33632.9 3916.54 29716.4 3660.88 2791.82 1898.44 2271.71 26055.5 5595.31 1916.56 1256.8 800.607 4338.51 1097.84 1124.73 1181.9 4324.46 1723.95 893.372 636.186 367.716 386.37 355.148 257.186 220.244 348.64 1389.16 61.9277
internal_count=308749 204474 197500 18935 178565 19123 12430 8925 11170 159442 31878 9740 5869 3233 26009 5692 6505 5599 25965 8916 3505 2446 1394 1555 1430 1059 929 1634 7953 300
is_linear=0
shrinkage=0.05


Tree=14
num_leaves=31
num_cat=0
split_feature=14 6 3 6 3 10 2 2 10 4 2 3 9 7 2 6 6 3 2 2 8 6 6 7 0 2 6 0 9 6
split_gain=80758.3 9855.43 1768.54 654.651 494.176 767.267 440.873 268.957 224.144 158.71 147.457 135.037 132.461 121.86 462.563 155.224 111.214 123.858 108.827 102.312 99.4803 78.3297 58.5299 47.0175 33.6129 41.6482 31.2437 21.4377 24.0864 19.2261
threshold=1.0000000180025095e-35 1.0000000180025095e-35 2.5000000000000004 2.5000000000000004 8.5000000000000018 1.0000000180025095e-35 4.6750000000000007 0.070000000000000021 1.0000000180025095e-35 0.81666666666666654 2.1650000000000005 6.5000000000000009 1.5000000000000002 1.5000000000000002 1.8050000000000004 5.5000000000000009 7.5000000000000009 5.5000000000000009 1.5350000000000004 6.9350000000000014 1.0000000180025095e-35 3.5000000000000004 2.5000000000000004 1.5000000000000002 36.500000000000007 2.1050000000000004 7.5000000000000009 56.500000000000007 8.5000000000000018 3.5000000000000004
decision_type=2 2 2 2 2 2 2 2 2 2 2 2 2 2 2 2 2 2 2 2 2 2 2 2 2 2 2 2 2 2
left_child=1 -1 3 18 5 6 16 29 10 23 20 26 -7 14 -14 -15 22 -18 27 -13 -9 -11 -4 -10 25 -20 -8 28 -3 -5
right_child=-2 2 4 7 -6 12 11 8 9 21 -12 19 13 15 -16 -17 17 -19 24 -21 -22 -23 -24 -25 -26 -27 -28 -29 -30 -31
leaf_value=0.067001939418268611 0.06714566457130304 -0.065828084027296008 -0.065700983044712877 0.037837628145563781 -0.0661449058047857 -0.056367510074946406 0.073886107664538708 -0.062647635474685409 -0.0064295808382683886 0.0078331227807703369 0.058455700926438675 -0.047747219284767321 -0.030099998724789547 -0.05685507495039354 0.07637957104325771 -0.016487345989719716 0.014928551882641285 -0.052447038985485521 -0.077865800439723826 0.033391810668849664 -0.024367404501885213 0.050472663201597261 -0.057896232785492413 -0.042192344765920792 0.10181042550444969 0.089231842744273371 0.021256582288714188 -0.03482572577921754 -0.047194974331167969 0.073498222265798732
leaf_weight=1710.5406735241413 25674.746265426278 763.77114735543728 3955.1936056464911 95.626461431384087 16202.983376786113 275.15941046178341 41.048033207654953 192.86974149942398 393.40983168780804 250.72168286144733 49.732420459389687 153.48444329202175 335.22196227312088 327.02937558293343 146.59940065443516 876.11768205463886 100.88422335684299 210.61997975409031 9.0192307382822055 52.018651187419891 1413.8686613589525 188.82112620770931 6117.6447576880455 119.91894303262234 12.42143429815769 6.3575921952724448 90.092038407921791 80.902103915810585 224.39093706011772 62.500379949808121
leaf_count=6974 104275 4639 25352 354 103223 1457 143 1071 1624 1001 173 854 1649 1710 506 4174 437 1178 47 201 6750 670 37321 563 40 20 360 431 1328 224
internal_value=1.78339e-05 -0.0499979 -0.0561091 -0.0243422 -0.0603591 -0.0529665 -0.0582253 -0.0113862 -0.0152233 0.00409826 -0.0263379 -0.00191161 -0.0242031 -0.0189506 0.00229757 -0.0274598 -0.0600509 -0.0306267 -0.0570314 -0.0272086 -0.0289625 0.0261504 -0.0609608 -0.0147841 0.0406371 -0.00877879 0.0377301 -0.059571 -0.0615969 0.0519326
internal_weight=60133.7 34459 32748.4 3864.33 28884.1 12681.1 10721 2767.47 2609.34 952.872 1656.47 336.643 1960.13 1684.97 481.821 1203.15 10384.3 311.504 1096.86 205.503 1606.74 439.543 10072.8 513.329 27.7983 15.3768 131.14 1069.06 988.162 158.127
internal_count=308749 204474 197500 18935 178565 75342 65846 12430 11852 3858 7994 1558 9496 8039 2155 5884 64288 1615 6505 1055 7821 1671 62673 2187 107 67 503 6398 5967 578
is_linear=0
shrinkage=0.05


Tree=15
num_leaves=31
num_cat=0
split_feature=13 6 3 11 6 3 11 10 10 3 2 3 6 6 1 2 6 1 2 2 2 6 3 6 1 2 1 2 1 2
split_gain=75299.9 9160.92 1710.53 685 617.318 363.674 339.578 474.728 326.947 791.635 227.956 402.589 253.22 215.894 146.483 117.643 107.674 101.63 101.259 100.665 95.906 81.3604 73.8316 69.8037 66.2673 60.2572 48.6332 47.624 45.0942 43.8267
threshold=1.0000000180025095e-35 1.0000000180025095e-35 2.5000000000000004 1.0000000180025095e-35 2.5000000000000004 9.5000000000000018 1.0000000180025095e-35 1.0000000180025095e-35 1.0000000180025095e-35 6.5000000000000009 1.6850000000000003 4.5000000000000009 4.5000000000000009 3.5000000000000004 97.500000000000014 0.24500000000000002 2.5000000000000004 97.500000000000014 1.5350000000000004 0.13000000000000003 2.2250000000000005 4.5000000000000009 3.5000000000000004 3.5000000000000004 79.500000000000014 2.1050000000000004 87.500000000000014 1.175 91.500000000000014 2.6450000000000005
decision_type=2 2 2 2 2 2 2 2 2 2 2 2 2 2 2 2 2 2 2 2 2 2 2 2 2 2 2 2 2 2
left_child=1 -1 4 8 18 10 7 15 -4 14 13 20 -13 26 16 28 -10 21 -3 -9 -12 -11 -15 24 25 -8 -5 -25 -6 -29
right_child=-2 2 3 5 6 -7 23 19 9 17 11 12 -14 22 -16 -17 -18 -19 -20 -21 -22 -23 -24 27 -26 -27 -28 29 -30 -31
leaf_value=0.0659004713582622 0.066032782233958157 -0.05816790800103841 -0.065078890681993226 -0.062954868112547024 -0.027774914920334254 -0.061219493862906864 -0.010886273445032974 0.052549549106651119 -0.05392237447800266 0.084859154893724573 -0.0034728443239524045 0.087770735491922547 -0.035264806448031726 0.03194174262854961 0.051948559480644058 -0.056188017513550931 -0.013516675041422309 0.03333357029554284 0.038950420646400009 -0.00059269558759033941 0.050279504488526597 -0.062677103711134829 -0.02641923961737094 0.044854910127816644 0.035886635788858104 0.077950931095558632 -0.012946826092551576 -0.011549496136203853 0.025480549854953068 0.05499287710911667
leaf_weight=1653.6174018234015 24823.659789711237 1040.8515588790178 19195.342847317457 673.78618177771568 297.09656699001789 1174.5237411111593 389.27357487380505 102.25274930894375 198.81825003027916 9.3660707473754865 129.00885151326656 43.645127922296524 999.70373311638832 89.226537138223648 74.403256431221962 725.32568176090717 965.89393165707588 27.949897408485413 27.549618780612946 693.41660925745964 232.6007731705904 4055.5832506269217 138.01870501041412 234.53557895123959 118.80384986102581 20.072184726595879 52.398427486419678 90.659126475453377 45.889201015233994 34.03398485481739
leaf_count=6974 104275 6398 127564 4043 1446 7221 1636 374 1099 30 572 147 4943 372 270 4058 4500 107 107 2859 871 25872 704 861 444 66 250 378 188 120
internal_value=2.01657e-05 -0.0488464 -0.0547983 -0.0590715 -0.0234075 -0.0384876 -0.0108818 -0.0230017 -0.0620364 -0.0510833 -0.0271666 -0.014361 -0.030118 -0.0460367 -0.016069 -0.0447783 -0.020414 -0.0616838 -0.0556636 0.0062367 0.0311027 -0.0623372 -0.00350414 0.0145767 0.00301123 -0.00653016 -0.0593465 0.0315805 -0.0206497 0.00661271
internal_weight=58357.3 33533.6 31880 28060.3 3819.76 3532.91 2751.36 1863.98 24527.4 5332.01 2358.39 1404.96 1043.35 953.43 1239.12 1068.31 1164.71 4092.9 1068.4 795.669 361.61 4064.95 227.245 887.378 528.15 409.346 726.185 359.229 342.986 124.693
internal_count=308749 204474 197500 178565 18935 19123 12430 8925 159442 31878 11902 6533 5090 5369 5869 5692 5599 26009 6505 3233 1443 25902 1076 3505 2146 1702 4293 1359 1634 498
is_linear=0
shrinkage=0.05


Tree=16
num_leaves=31
num_cat=0
split_feature=13 6 2 11 10 7 4 12 6 2 2 7 1 2 1 10 6 7 2 2 7 7 4 10 11 4 2 1 1 1
split_gain=70295.9 8526.47 1413.89 1040.47 542.057 858.477 440.245 363.88 326.498 262.847 215.387 235.785 168.794 129.002 128.158 115.78 85.036 65.6057 92.8913 54.3265 52.9927 44.6802 42.2093 40.3633 74.5793 40.3642 33.7285 33.1039 30.3843 29.5025
threshold=1.0000000180025095e-35 1.0000000180025095e-35 0.36500000000000005 1.0000000180025095e-35 1.0000000180025095e-35 2.5000000000000004 4.3541666666666679 1.0000000180025095e-35 3.5000000000000004 6.205000000000001 2.1650000000000005 1.5000000000000002 97.500000000000014 0.070000000000000021 80.500000000000014 1.0000000180025095e-35 2.5000000000000004 3.5000000000000004 10.895000000000001 0.64500000000000013 2.5000000000000004 1.5000000000000002 1.3095238095238095 1.0000000180025095e-35 1.0000000180025095e-35 0.93750000000000011 0.070000000000000021 87.500000000000014 10.500000000000002 81.500000000000014
decision_type=2 2 2 2 2 2 2 2 2 2 2 2 2 2 2 2 2 2 2 2 2 2 2 2 2 2 2 2 2 2
left_child=1 -1 8 4 19 9 7 14 13 12 15 -12 -6 -3 16 -9 -5 18 -7 27 -16 -8 -15 24 26 -25 -10 -4 -28 -24
right_child=-2 2 3 6 5 17 21 10 23 -11 11 -13 -14 22 20 -17 -18 -19 -20 -21 -22 -23 29 25 -26 -27 28 -29 -30 -31
leaf_value=0.064886734679069538 0.065008801470732444 0.035859445901889726 -0.05677423954615532 -0.044142626514006002 -0.025973735521972376 -0.051077648459589536 0.076981265652212277 -0.060312373876134411 0.077708322029418742 0.10725399169245686 0.093918135672486025 -0.023592377049040686 0.046491404509819999 -0.012994066611431552 0.032373496631955066 -0.018520582088936758 -0.0076293197008670821 -0.064141678567029167 0.059116271358395582 -0.06438343310833336 -0.017608213972323358 -0.058409604136677153 -0.041949675050587956 0.0085886945672296114 0.05113327821432994 0.066687429469448486 -0.064596678369285773 -0.033419236061511419 -0.00060289222242093405 -0.015580939021945817
leaf_weight=1596.916847884655 23975.435702115297 94.290925547480583 805.7083026021719 188.07956281304359 1941.9987169355154 876.30936786532402 6.1234045326709738 851.87005296349525 11.207153439521788 39.501441419124603 49.604429289698601 306.14509825408459 83.828423917293549 387.27932627499104 258.12938940525055 205.75545600056648 1047.7502240687609 2917.9632474482059 19.551637724041939 18477.442714869976 66.743722468614578 1253.5053368359804 385.50068260729313 39.423790648579597 107.45405760407448 123.6910038292408 23.024586200714111 186.9268174469471 95.417524471879005 146.34629736840725
leaf_count=6974 104275 354 5184 1031 9604 5306 22 5222 38 140 165 1523 313 1739 1005 965 4666 19619 96 126920 317 7768 2066 154 396 442 130 1124 453 738
internal_value=2.15535e-05 -0.0477824 -0.053587 -0.0559214 -0.0597535 -0.0464479 -0.0329765 -0.0224835 -0.00473615 -0.0204844 -0.0408617 -0.00720714 -0.0229751 -0.0198368 -0.00584008 -0.052182 -0.0131862 -0.060508 -0.0486727 -0.0637713 0.022105 -0.0577514 -0.0255505 0.0335011 0.0203309 0.0526453 -0.00519825 -0.0523762 -0.013043 -0.0346939
internal_weight=56568.9 32593.5 30996.6 29582.9 25349.2 5879.15 4233.71 2974.08 1413.64 2065.33 1413.38 355.75 2025.83 1013.42 1560.7 1057.63 1235.83 3813.82 895.861 19470.1 324.873 1259.63 919.126 400.218 237.103 163.115 129.649 992.635 118.442 531.847
internal_count=308749 204474 197500 190990 168306 35078 22684 14894 6510 10057 7875 1688 9917 4897 7019 6187 5697 25021 5402 133228 1322 7790 4543 1613 1017 596 621 6308 583 2804
is_linear=0
shrinkage=0.05


Tree=17
num_leaves=31
num_cat=0
split_feature=13 7 3 11 2 3 12 10 3 2 11 12 10 2 9 8 9 12 4 7 10 7 10 2 10 2 7 11 12 3
split_gain=65674.3 7939.75 1615.91 671.91 367.384 342.18 357.855 332.732 760.331 318.599 136.684 222.458 199.965 134.682 127.885 128.03 121.468 107.048 104.281 85.9677 75.2509 74.3385 70.54 68.8706 56.3316 44.8587 43.026 42.8331 40.459 36.5727
threshold=1.0000000180025095e-35 1.0000000180025095e-35 2.5000000000000004 1.0000000180025095e-35 0.13000000000000003 9.5000000000000018 1.0000000180025095e-35 1.0000000180025095e-35 8.5000000000000018 2.1050000000000004 1.0000000180025095e-35 1.0000000180025095e-35 1.0000000180025095e-35 3.4250000000000003 1.0000000180025095e-35 1.5000000000000002 1.5000000000000002 1.0000000180025095e-35 0.81666666666666654 1.5000000000000002 1.0000000180025095e-35 1.5000000000000002 1.0000000180025095e-35 0.41000000000000009 1.0000000180025095e-35 0.60500000000000009 1.5000000000000002 1.0000000180025095e-35 1.0000000180025095e-35 4.5000000000000009
decision_type=2 2 2 2 2 2 2 2 2 2 2 2 2 2 2 2 2 2 2 2 2 2 2 2 2 2 2 2 2 2
left_child=1 -1 4 7 24 6 14 25 16 10 12 18 23 22 29 -16 -9 -14 -12 -18 -13 -15 -8 -6 27 -4 -11 -3 -29 -5
right_child=-2 2 3 5 9 -7 13 8 -10 26 11 20 17 21 15 -17 19 -19 -20 -21 -22 -23 -24 -25 -26 -27 -28 28 -30 -31
leaf_value=0.063951748703137565 0.064064591119832079 -0.0063369001663833779 -0.045468028776946917 -0.016552276684343444 -0.034224455778428503 -0.058845513350824032 -0.058038120019205823 -0.054052504784009817 -0.062103652478050546 0.076418917313620369 -0.01737426795601266 -0.052583143927870529 -0.0050683494952672792 0.10221866918036414 -0.043956599768280265 0.0096142938443805892 0.0033992514603852588 -0.043091442430459301 0.030415635728397079 -0.023394471285952661 -0.013322250154275113 -0.017283029691572058 -0.015489457960760233 -0.057046282712961166 0.051892085658260867 -0.063399879274414414 0.020505856493515339 0.064969228766288772 -0.0040475371630233565 -0.060555067449564508
leaf_weight=1540.6762335151434 23133.690120220184 138.29694926738739 355.83553691208363 81.018570795655251 535.36960400640965 1112.5850544571877 824.17806719243526 237.36325237154961 3402.9170518219471 67.072232365608215 195.74938717484474 310.73737999796867 567.13461527228355 13.868955969810484 129.08014859259129 820.32582250237465 425.83153909444809 274.80102278292179 273.83029694855213 1008.0696289986372 200.99160040915012 211.07122687995434 110.4659888446331 864.19711674749851 134.66175831854343 17559.248528555036 70.647891759872437 54.516400143504143 34.782979473471642 113.197724416852
leaf_count=6974 104275 631 2391 364 2886 7221 5252 1323 23492 228 925 1689 2521 44 643 3478 1952 1401 1102 5111 912 1005 538 5510 507 125173 280 202 141 578
internal_value=2.33102e-05 -0.0467585 -0.05242 -0.056768 -0.0215807 -0.0360761 -0.0250772 -0.0598424 -0.0485397 -0.0267378 -0.0299203 -0.0143579 -0.0367334 -0.0446497 -0.00523146 0.00233086 -0.0209218 -0.0174788 0.0104939 -0.0154374 -0.0371627 -0.00991501 -0.0530093 -0.0483164 0.0262592 -0.0630437 0.0477365 0.011093 0.0380865 -0.042199
internal_weight=54802.2 31668.5 30127.8 26405.1 3722.79 3415.79 2303.21 22989.3 5074.18 3360.53 3222.81 981.309 2241.5 1159.58 1143.62 949.406 1671.26 841.936 469.58 1433.9 511.729 224.94 934.644 1399.57 362.258 17915.1 137.72 227.596 89.2994 194.216
internal_count=308749 204474 197500 178565 18935 19123 11902 159442 31878 17454 16946 4628 12318 6839 5063 4121 8386 3922 2027 7063 2601 1049 5790 8396 1481 127564 508 974 343 942
is_linear=0
shrinkage=0.05


Tree=18
num_leaves=31
num_cat=0
split_feature=13 3 11 3 10 3 3 12 11 10 12 11 10 3 12 10 2 10 2 3 2 12 2 2 1 1 2 3 9 0
split_gain=61407.3 4771.33 951.278 606.569 488.776 1082.99 480.983 432.265 296.414 479.559 181.703 163.997 312.602 138.585 135.146 119.508 116.226 113.248 106.857 101.12 99.4012 97.5068 78.4957 72.2193 67.5198 65.3662 62.973 55.8311 52.1862 50.158
threshold=1.0000000180025095e-35 2.5000000000000004 1.0000000180025095e-35 1.5000000000000002 1.0000000180025095e-35 6.5000000000000009 8.5000000000000018 1.0000000180025095e-35 1.0000000180025095e-35 1.0000000180025095e-35 1.0000000180025095e-35 1.0000000180025095e-35 1.0000000180025095e-35 5.5000000000000009 1.0000000180025095e-35 1.0000000180025095e-35 3.9650000000000003 1.0000000180025095e-35 0.28500000000000009 9.5000000000000018 4.3950000000000005 1.0000000180025095e-35 0.72500000000000009 0.070000000000000021 97.500000000000014 97.500000000000014 0.69500000000000006 5.5000000000000009 8.5000000000000018 33.500000000000007
decision_type=2 2 2 2 2 2 2 2 2 2 2 2 2 2 2 2 2 2 2 2 2 2 2 2 2 2 2 2 2 2
left_child=1 3 4 11 -3 14 7 13 9 18 -10 12 23 -4 24 22 17 28 -5 25 -15 -11 -12 -1 27 -7 -14 -6 -9 -16
right_child=-2 2 6 8 5 19 -8 16 10 21 15 -13 26 20 29 -17 -18 -19 -20 -21 -22 -23 -24 -25 -26 -27 -28 -29 -30 -31
leaf_value=0.020618820601878144 0.063192213583966997 -0.062133423218050501 0.016706428232103412 -0.013396237566604364 0.0050829352816964225 -0.043165688399388912 -0.055602822239117548 -0.053556728243540103 0.028806168460739842 0.018305213074853024 -0.048919316975817265 0.037563714714555427 0.03441662071185795 -0.039071110022855321 -0.0068671125578926686 0.017814041010965589 0.0040569165603432898 -0.0039920784438350404 -0.051996233196006561 -0.061992200000890452 0.013022831939551045 -0.020273674878484652 0.0058731577905483806 -0.046693722045747454 0.049695694105589529 0.038804927697331931 0.0006131324973607631 -0.025740113998648034 0.03203217999111739 -0.04899482101988703
leaf_weight=47.645574018359184 22301.490368485451 17284.685599833727 780.56383579969406 218.46841299533844 777.40057122707367 586.93208757042885 1217.8426247686148 831.82886789739132 504.9489214271307 505.13497084379196 219.85265831649303 880.26924407482147 535.18408185243607 246.56245949864388 107.02528223395348 187.95719034969807 139.03344812989235 145.54146027565002 999.90267294645309 3121.0076780319214 145.67205557227135 242.37253880500793 93.02107809484005 243.46642734110355 71.287522464990616 25.372089087963104 185.53986820578575 181.14831565320492 18.199531301856041 207.91566184163094
leaf_count=184 104275 127564 3342 1095 3624 3500 7953 5395 2227 2283 1249 3982 2322 1228 508 846 598 706 6396 22413 598 1240 448 1367 261 96 892 890 84 1183
internal_value=2.49282e-05 -0.0457846 -0.0543213 -0.000346766 -0.0581268 -0.044489 -0.030181 -0.0167634 -0.0144363 -0.0257315 0.00764104 0.0217817 0.00805173 0.00452254 -0.00601614 -0.0136981 -0.038766 -0.0447463 -0.0450748 -0.0583474 -0.0197239 0.00579636 -0.0326289 -0.0356768 0.00274935 -0.0397691 0.0257144 -0.000742061 -0.0517242 -0.0346787
internal_weight=53053.3 30751.8 25888 4863.76 22362.8 5078.09 3525.24 2307.4 2971.66 1965.88 1005.78 1892.11 1011.84 1172.8 1344.78 500.831 1134.6 995.57 1218.37 3733.31 392.235 747.508 312.874 291.112 1029.84 612.304 720.724 958.549 850.028 314.941
internal_count=308749 204474 179943 24531 160039 32475 19904 11951 15784 11014 4770 8747 4765 5168 6466 2543 6783 6185 7491 26009 1826 3523 1697 1551 4775 3596 3214 4514 5479 1691
is_linear=0
shrinkage=0.05


Tree=19
num_leaves=31
num_cat=0
split_feature=13 6 2 11 10 7 4 6 6 2 2 6 4 2 1 7 2 9 2 1 7 9 1 2 11 10 1 4 9 1
split_gain=57425.7 7141.98 1251.03 974.744 542.102 772.21 379.949 336.998 281.932 247.189 245.583 171.611 130.54 102.515 76.8405 68.801 89.0513 67.5773 59.643 48.8514 40.7291 37.7303 34.5719 34.5379 30.0392 59.6421 28.7934 28.1738 27.0492 94.7646
threshold=1.0000000180025095e-35 1.0000000180025095e-35 0.36500000000000005 1.0000000180025095e-35 1.0000000180025095e-35 2.5000000000000004 4.3541666666666679 2.5000000000000004 3.5000000000000004 2.0050000000000003 6.0250000000000012 2.5000000000000004 2.1666666666666679 0.070000000000000021 80.500000000000014 3.5000000000000004 10.745000000000003 7.5000000000000009 0.64500000000000013 98.500000000000014 1.5000000000000002 7.5000000000000009 87.500000000000014 0.070000000000000021 1.0000000180025095e-35 1.0000000180025095e-35 10.500000000000002 1.3095238095238095 7.5000000000000009 87.500000000000014
decision_type=2 2 2 2 2 2 2 2 2 2 2 2 2 2 2 2 2 2 2 2 2 2 2 2 2 2 2 2 2 2
left_child=1 -1 8 4 18 10 7 9 13 19 11 -6 14 -3 -9 16 -7 -14 22 -5 -8 27 -4 -10 25 26 -25 -15 -22 -30
right_child=-2 2 3 6 5 15 20 12 23 -11 -12 -13 17 21 -16 -17 -18 -19 -20 -21 28 -23 -24 24 -26 -27 -28 -29 29 -31
leaf_value=0.062827352701168002 0.06238472293117521 0.032365581780922456 -0.053268772215564447 -0.060106638019170072 -0.051062341259467361 -0.047483665194874292 0.074378362458976374 -0.005940665887380351 0.068582553948647249 0.078196977464968065 0.097191418269810925 -0.013886399006042403 -0.03136350013148656 -0.017100496698520994 0.026466390312816231 -0.061287547661895071 0.054949724715809493 -0.00047271212293257625 -0.061667005415267921 0.076361539388441993 -0.057694229672853661 -0.0062010419641712359 -0.028518656979249393 -0.061194033309326525 0.04658960982185871 0.043418495771970357 0.0026525107961092539 -0.038137135457335727 -0.051727559105763321 0.064052505287979622
leaf_weight=1466.1393324285746 21481.423304215074 91.657112836837769 738.93536755442619 625.10250417888165 385.19478040933609 812.16666729748249 6.1247732639312735 989.21038526296616 56.16712474822998 34.804203063249588 44.866686522960663 1599.2919525951147 775.63773359358311 272.84931500256062 224.41203823685646 2632.4869917035103 21.786816462874413 229.40892197191715 16596.404808804393 6.6272611469030371 1019.4328627288342 240.11861208081245 174.39343050122261 21.777024105191231 116.80481123924255 99.586396500468254 93.375257611274719 381.97327299416065 115.14215916395187 20.87791620194912
leaf_count=6974 104275 354 5184 4092 2283 5290 22 4378 224 118 166 7608 4322 1249 893 19619 112 1068 126920 23 6901 1180 1124 130 441 365 453 2114 763 104
internal_value=2.5273e-05 -0.0447872 -0.0503376 -0.0527018 -0.0566824 -0.0429825 -0.0300723 -0.0203513 -0.00380028 -0.051528 -0.018487 -0.0211024 -0.0109851 -0.0179969 5.17527e-05 -0.0573228 -0.0448076 -0.0243125 -0.0609824 -0.058675 -0.0542181 -0.0231548 -0.0485429 0.0323255 0.0261831 0.0150832 -0.00942183 -0.0293717 -0.0548998 -0.0339563
internal_weight=51374.2 29892.8 28426.6 27052.3 23005.5 5495.79 4046.78 2885.2 1374.31 666.534 2029.35 1984.49 2218.67 986.598 1213.62 3466.44 833.953 1005.05 17509.7 631.73 1161.58 894.941 913.329 387.711 331.543 214.739 115.152 654.823 1155.45 136.02
internal_count=308749 204474 197500 190990 168306 35078 22684 14894 6510 4233 10057 9891 10661 4897 5271 25021 5402 5390 133228 4115 7790 4543 6308 1613 1389 948 583 3363 7768 867
is_linear=0
shrinkage=0.05


Tree=20
num_leaves=31
num_cat=0
split_feature=14 6 3 11 6 10 3 3 11 10 2 1 9 4 7 2 2 9 2 2 4 3 1 4 6 4 1 2 2 1
split_gain=53767.8 6661.53 1450.58 655.541 515.999 343.364 714.754 309.683 235.441 345.273 194.487 179.187 156.092 104.984 101.102 92.2865 88.4835 87.6068 86.5273 84.8662 83.839 112.235 83.7351 68.1568 63.0771 58.9581 49.5414 47.6458 42.7072 42.8175
threshold=1.0000000180025095e-35 1.0000000180025095e-35 2.5000000000000004 1.0000000180025095e-35 2.5000000000000004 1.0000000180025095e-35 8.5000000000000018 9.5000000000000018 1.0000000180025095e-35 1.0000000180025095e-35 4.205000000000001 97.500000000000014 7.5000000000000009 0.81666666666666654 2.5000000000000004 0.28500000000000009 1.5350000000000004 1.5000000000000002 7.3550000000000013 5.285000000000001 0.93750000000000011 1.5000000000000002 87.500000000000014 1.866071428571429 3.5000000000000004 1.9375000000000002 91.500000000000014 0.60500000000000009 2.2250000000000005 69.500000000000014
decision_type=2 2 2 2 2 2 2 2 2 2 2 2 2 2 2 2 2 2 2 2 2 2 2 2 2 2 2 2 2 2
left_child=1 -1 4 5 16 27 11 10 9 15 12 17 23 -11 19 26 -3 -7 -16 -12 28 -22 -14 -5 -15 -23 -6 -4 29 -10
right_child=-2 2 3 7 8 6 -8 -9 20 13 14 -13 22 24 18 -17 -18 -19 -20 -21 21 25 -24 -25 -26 -27 -28 -29 -30 -31
leaf_value=0.062046886793431226 0.061636036628540572 -0.053624066160123385 -0.041590286485711725 -0.014040207754127704 -0.026420674935209068 -0.051119558182310613 -0.059340691055847883 -0.055655138720937802 -0.031687795998490705 -0.010607686364602782 0.0094436745329516888 0.048794509946004816 -0.016008676525968768 0.0074414386114459684 -0.033122416060009603 -0.050850035804593713 0.038037117182069667 -0.01750759873424157 0.021809267281878909 0.085093946132334203 0.050270032802656218 -0.00098591028768430671 0.035614112777135096 -0.04345814070735269 0.049881465744124616 0.060382449437380331 0.026586581677092741 -0.060885103654595832 0.043556082235467926 0.018417499561554265
leaf_weight=1411.7306780964136 20675.649224162102 933.61852221190929 326.59494711458683 239.59029826521873 336.69955697655678 227.50187404453754 3070.8294346630573 1020.1725465208292 164.8827273696661 429.29778261482716 92.371003448963165 93.549303829669952 328.00520581007004 198.73882141709328 171.4465626180172 593.88468389213085 27.092844679951668 1311.0137490481138 123.20461550354958 61.926594361662865 235.06946475803852 332.32414115965366 103.28999464213848 1104.7602618485689 156.48977538943291 44.362138673663139 50.71964818239212 15726.97606831789 31.406255543231964 57.509287536144257
leaf_count=6974 104275 6398 2391 1106 1724 1323 23492 7221 724 1839 402 343 1604 810 831 3754 107 6720 503 213 891 1398 401 6842 584 157 214 125173 115 220
internal_value=2.69753e-05 -0.0438898 -0.0493097 -0.0537447 -0.0196763 -0.0570119 -0.0451303 -0.0328451 -0.00822574 -0.0186968 -0.0223847 -0.0183925 -0.0298185 0.00603037 0.00701679 -0.0384656 -0.0510391 -0.0224778 -0.0101534 0.0398055 0.0131365 0.0231596 -0.00364564 -0.0382153 0.0261377 0.00624141 -0.0194811 -0.0604926 -0.0110232 -0.0187309
internal_weight=49680.7 29005.1 27593.3 24001.2 3592.1 20756.5 4702.89 3244.77 2631.38 1765.83 2224.59 1632.06 1775.65 784.526 448.949 981.304 960.711 1538.52 294.651 154.298 865.554 611.756 431.295 1344.35 355.229 376.686 387.419 16053.6 253.798 222.392
internal_count=308749 204474 197500 178565 18935 159442 31878 19123 12430 8925 11902 8386 9953 3233 1949 5692 6505 8043 1334 615 3505 2446 2005 7948 1394 1555 1938 127564 1059 944
is_linear=0
shrinkage=0.05


Tree=21
num_leaves=31
num_cat=0
split_feature=13 7 3 11 10 3 3 12 2 2 0 11 10 12 2 9 8 9 7 3 10 2 10 7 7 7 2 2 7 9
split_gain=50380.7 6218.12 1406.79 654.537 348.427 699.743 298.93 297.39 279.622 264.576 134.521 139.76 191.749 164.565 119.465 113.093 110.256 105.904 79.877 68.2539 66.0499 48.3032 44.658 42.6956 40.2791 38.6284 97.1432 37.2528 35.75 34.0863
threshold=1.0000000180025095e-35 1.0000000180025095e-35 2.5000000000000004 1.0000000180025095e-35 1.0000000180025095e-35 8.5000000000000018 9.5000000000000018 1.0000000180025095e-35 0.13000000000000003 2.1050000000000004 48.500000000000007 1.0000000180025095e-35 1.0000000180025095e-35 1.0000000180025095e-35 3.4250000000000003 1.0000000180025095e-35 1.5000000000000002 1.5000000000000002 1.5000000000000002 5.5000000000000009 1.0000000180025095e-35 0.64500000000000013 1.0000000180025095e-35 1.5000000000000002 1.5000000000000002 2.5000000000000004 6.5850000000000009 0.28500000000000009 2.5000000000000004 4.5000000000000009
decision_type=2 2 2 2 2 2 2 2 2 2 2 2 2 2 2 2 2 2 2 2 2 2 2 2 2 2 2 2 2 2
left_child=1 -1 8 4 21 17 7 15 22 10 11 12 -10 -13 20 -5 -17 -6 -19 -16 -9 23 29 -4 -11 26 -7 -12 -8 -3
right_child=-2 2 3 6 5 25 28 14 9 24 27 13 -14 -15 19 16 -18 18 -20 -21 -22 -23 -24 -25 -26 -27 -28 -29 -30 -31
leaf_value=0.061322714211150209 0.06094078178627154 -0.015536145194810539 -0.044888571577594794 -0.038834861335385724 -0.049640539697311102 -0.042931388408497244 0.01479028695973379 -0.054106243959922307 -0.04444260068995394 0.073137526525506383 -0.015485609374249455 0.019146153794666668 -0.0098417582381993499 -0.027330416161960466 0.035043228053072466 -0.040151362598488234 0.010265393130786209 0.0057643036873755871 -0.02033677296593563 -0.025733096166693354 -0.01222702445001159 -0.060207426007938041 0.0471931093913961 0.075976388431155395 0.018492688909672785 -0.059415965591565811 0.14008217571257209 -0.050980133952646847 -0.055915013167307563 0.025191300125289685
leaf_weight=1358.3344645649195 19885.954402968287 81.988125741481781 394.85115694999695 189.23321796953678 222.68951039016247 66.610297843813896 18.213323101401329 745.55732001364231 918.86170874536037 65.210077628493309 84.658662334084511 392.15731397271156 709.64052300155163 370.31901495158672 66.015079259872437 125.13660529255867 812.79347005486488 418.61586420238018 977.75465427339077 153.86649668216705 107.75624315440655 15053.206077136099 127.43914300203323 7.4444738477468482 69.839149236679077 2887.3623346239328 8.1364875137805921 582.90417987108231 970.26568906009197 137.58769810199738
leaf_count=6974 104275 387 3010 942 1323 435 106 5252 5817 228 452 1621 3182 1754 253 643 3478 1952 5111 796 538 124508 507 46 280 23027 30 4120 7115 587
internal_value=2.87148e-05 -0.0430404 -0.0483366 -0.0528122 -0.0561608 -0.0440501 -0.0317719 -0.0215113 -0.018978 -0.0236098 -0.0266339 -0.0210932 -0.0293648 -0.00342656 -0.0403495 -0.003575 0.0035389 -0.0176187 -0.012512 -0.00748621 -0.0488177 -0.0597505 0.0236488 -0.042652 0.0448786 -0.0584973 -0.0230096 -0.0464788 -0.0546122 0.00998395
internal_weight=48010.4 28124.4 26766.1 23225.5 20036.7 4581.17 3188.84 2200.36 3540.61 3193.59 3058.54 2390.98 1628.5 762.476 1073.2 1127.16 937.93 1619.06 1396.37 219.882 853.314 15455.5 347.015 402.296 135.049 2962.11 74.7468 667.563 988.479 219.576
internal_count=308749 204474 197500 178565 159442 31878 19123 11902 18935 17454 16946 12374 8999 3375 6839 5063 4121 8386 7063 1049 5790 127564 1481 3056 508 23492 465 4572 7221 974
is_linear=0
shrinkage=0.05


Tree=22
num_leaves=31
num_cat=0
split_feature=13 6 11 10 7 4 6 6 7 6 12 4 12 7 12 10 7 6 7 1 1 6 7 4 4 6 7 6 10 9
split_gain=47229.2 5805.48 1162.24 707.363 970.742 441.616 329.188 263.357 331.164 199.113 182.015 139.575 180.047 105.474 180.426 90.4465 83.0446 77.7026 73.1306 70.9992 64.8683 59.7976 68.0431 56.9149 54.9024 51.58 50.3445 67.0338 46.5148 40.2439
threshold=1.0000000180025095e-35 1.0000000180025095e-35 1.0000000180025095e-35 1.0000000180025095e-35 2.5000000000000004 2.0625000000000004 2.5000000000000004 2.5000000000000004 1.5000000000000002 5.5000000000000009 1.0000000180025095e-35 5.2678571428571441 1.0000000180025095e-35 1.5000000000000002 1.0000000180025095e-35 1.0000000180025095e-35 1.5000000000000002 5.5000000000000009 3.5000000000000004 97.500000000000014 98.500000000000014 5.5000000000000009 2.5000000000000004 -2.9374999999999996 2.6666666666666679 9.5000000000000018 1.5000000000000002 3.5000000000000004 1.0000000180025095e-35 6.5000000000000009
decision_type=2 2 2 2 2 2 2 2 2 2 2 2 2 2 2 2 2 2 2 2 2 2 2 2 2 2 2 2 2 2
left_child=1 -1 3 19 7 6 -4 20 10 -10 -9 12 16 14 -8 -16 24 -18 23 26 -5 -15 -23 -6 -7 -25 27 -3 -14 -29
right_child=-2 2 5 4 18 11 13 8 9 -11 -12 -13 28 21 15 -17 17 -19 -20 -21 -22 22 -24 25 -26 -27 -28 29 -30 -31
leaf_value=0.060649756778283249 0.060294210550630216 -0.055311517192356247 -0.04654354703698485 -0.052992002069063085 0.01984952627585336 -0.00077409609704525329 0.036838659675685302 0.030220626396771796 -0.053394037107538456 -0.0067670804881970531 -0.018685202140583886 -0.054574188314155808 -0.049483074107699192 -0.041056403158372085 -0.02738969096508713 0.019645248640889738 -0.058877696220892874 -0.009965670493497121 -0.058947693606372378 -0.025077572362890235 0.06731832216802687 0.014887054908668396 -0.02272659959290162 -0.057359189851069338 0.060971801899046822 -0.030919423970776339 -0.059634952677746947 -0.046657618785533261 -0.018199564508280263 -0.014517773001051858
leaf_weight=1306.0597406476736 19113.795297339559 5021.5982214435935 390.50387924909592 376.05172528326511 36.33832386136055 95.300495982170105 478.84280243515968 688.67299622297287 374.27430756390095 589.73743967711926 262.86926597356796 824.26032804697752 716.44389749318361 130.67097546160221 248.03065092861652 173.85000924766064 100.29094332456589 426.50843423604965 2360.6260899603367 169.18732638657093 11.547893881797789 253.90314543247223 228.38871794939041 371.97300332784653 57.857470691204071 365.92330119758844 10654.79636105895 253.95174810290337 142.44810569286346 157.9946847781539
leaf_count=6974 104275 41092 2492 2374 188 420 1825 2697 2128 2936 1197 6237 5096 617 1195 693 542 2193 19619 1206 43 1040 1161 2668 210 2546 91398 1855 777 1055
internal_value=3.02294e-05 -0.0422111 -0.0473855 -0.0520772 -0.0364668 -0.023532 -0.0056135 -0.0118207 -0.00421521 -0.0248698 0.0167101 -0.0379708 -0.0290774 0.00494572 0.0158337 -0.00800737 -0.00985568 -0.0192774 -0.0545742 -0.0572987 -0.0494076 -0.0110537 -0.00292484 -0.0412393 0.0225512 -0.0442477 -0.0576376 -0.0537209 -0.0442947 -0.034331
internal_weight=46382.7 27268.9 25962.8 21695.5 5438.01 4267.3 1904.19 2303.15 1915.55 964.012 951.542 2363.11 1538.85 1513.69 900.723 421.881 679.957 526.799 3134.86 16257.5 387.6 612.963 482.292 774.235 153.158 737.896 16088.3 5433.54 858.892 411.946
internal_count=308749 204474 197500 173002 36396 24498 9023 11375 8958 5064 3894 15475 9238 6531 3713 1888 3365 2735 25021 136606 2417 2818 2201 5402 630 5214 135400 44002 5873 2910
is_linear=0
shrinkage=0.05


Tree=23
num_leaves=31
num_cat=0
split_feature=13 7 11 2 10 7 7 12 2 10 1 2 1 10 2 12 7 2 7 2 2 1 2 2 0 2 9 2 2 0
split_gain=44296.1 5421.9 1137.65 747.661 561.107 689.012 281.475 427.465 216.802 193.921 130.201 124.028 122.575 100.912 91.2744 82.3864 74.5704 86.7559 65.7193 64.9775 64.0939 63.265 57.6377 47.7286 43.0242 42.3986 41.3889 36.304 35.7412 35.4708
threshold=1.0000000180025095e-35 1.0000000180025095e-35 1.0000000180025095e-35 0.41000000000000009 1.0000000180025095e-35 2.5000000000000004 2.5000000000000004 1.0000000180025095e-35 6.0250000000000012 1.0000000180025095e-35 97.500000000000014 3.9050000000000007 71.500000000000014 1.0000000180025095e-35 0.36500000000000005 1.0000000180025095e-35 3.5000000000000004 10.485000000000001 4.5000000000000009 5.285000000000001 18.550000000000001 91.500000000000014 0.19000000000000003 0.64500000000000013 57.500000000000007 0.13000000000000003 7.5000000000000009 5.6050000000000013 5.8550000000000013 54.500000000000007
decision_type=2 2 2 2 2 2 2 2 2 2 2 2 2 2 2 2 2 2 2 2 2 2 2 2 2 2 2 2 2 2
left_child=1 -1 3 13 23 8 7 12 10 11 -6 26 14 21 29 25 17 -7 20 -16 -8 24 -11 -5 -3 -15 -9 -24 -13 -4
right_child=-2 2 6 4 5 16 18 9 -10 22 -12 28 -14 15 19 -17 -18 -19 -20 -21 -22 -23 27 -25 -26 -27 -28 -29 -30 -31
leaf_value=0.060023515651529406 0.059692103992443638 -0.028676455354381361 0.045757722488237527 -0.045696685718954071 -0.02090628449753926 -0.043374430283137894 -0.036188660003483634 -0.051082490375857485 0.092614887883560038 0.054733133854382957 0.043637330265982779 0.008536627334222965 0.028517633537555556 0.063068239438214643 -0.011488424621155773 -0.024252535297658084 -0.058233308249616436 0.04772993612047343 -0.061351078489737754 0.071946149109475971 0.1950583979519174 0.017071152807773621 -0.010919944680971558 -0.058832534597240443 0.072787019181565007 0.015764715031255729 -0.021748111794824554 0.1014395318573182 0.10683691485852571 -0.064101709861891551
leaf_weight=1254.9947983622551 18360.338482528925 581.18943856656551 106.61048348248005 726.78619703650475 1813.2653332799673 729.63433215767145 980.0398783609271 910.97846516221762 45.252613201737404 40.634254112839699 81.654070183634758 45.094830602407455 413.25721468031406 65.273358941078186 865.95042380690575 106.02347172796726 2272.3445912748575 27.101914048194885 327.22483093291521 23.981391116976738 3.0056205019354811 95.161768808960915 320.4530738145113 14249.655241705477 10.639257863163946 172.7069189697504 138.53141768276691 7.3540918529033652 11.632235169410704 7.8913067430257788
leaf_count=6974 104275 3465 415 5679 9434 5249 6382 6371 166 162 309 208 1688 258 4110 506 19619 153 2600 90 15 487 1531 126920 55 702 813 24 40 49
internal_value=3.20754e-05 -0.0414057 -0.0464611 -0.0512182 -0.0533644 -0.0388055 -0.0227168 -0.0140075 -0.0155421 -0.0328542 -0.018125 -0.0433181 0.00559677 -0.00969891 -0.00383363 0.0124069 -0.0537061 -0.0401116 -0.0419422 -0.00924008 -0.0354816 -0.0207682 -0.00143658 -0.0581951 -0.0268525 0.0287392 -0.0472105 -0.00839925 0.0286937 0.0381864
internal_weight=44794.7 26434.3 25179.3 20976.7 19945.7 4969.25 4202.64 2892.37 1940.17 1474.68 1894.92 1106.24 1417.69 1030.99 1004.43 344.004 3029.08 756.736 1310.27 889.932 983.045 686.99 368.441 14976.4 591.829 237.98 1049.51 327.807 56.7271 114.502
internal_count=308749 204474 197500 173002 167529 34930 24498 15501 9909 9149 9743 7432 6352 5473 4664 1466 25021 5402 8997 4200 6397 4007 1717 132599 3520 960 7184 1555 248 464
is_linear=0
shrinkage=0.05


Tree=24
num_leaves=31
num_cat=0
split_feature=13 6 11 2 10 7 7 12 2 10 7 6 2 6 6 2 2 2 2 7 7 2 2 2 2 2 10 9 6 9
split_gain=41559.7 5064.07 1117.39 727.521 569 671.659 268.584 332.209 199.038 168.815 155.296 330.487 143.246 136.924 133.22 108.647 99.9347 84.9345 84.3315 226.556 76.1886 79.9461 60.7539 51.6847 49.6808 49.1845 40.4102 39.1491 38.283 33.1934
threshold=1.0000000180025095e-35 1.0000000180025095e-35 1.0000000180025095e-35 0.41000000000000009 1.0000000180025095e-35 2.5000000000000004 3.5000000000000004 1.0000000180025095e-35 5.1250000000000009 1.0000000180025095e-35 1.5000000000000002 2.5000000000000004 2.0050000000000003 3.5000000000000004 2.5000000000000004 2.1050000000000004 1.2950000000000002 11.025 2.1650000000000005 1.5000000000000002 3.5000000000000004 10.485000000000001 0.24500000000000002 0.070000000000000021 6.5850000000000009 0.64500000000000013 1.0000000180025095e-35 1.0000000180025095e-35 2.5000000000000004 7.5000000000000009
decision_type=2 2 2 2 2 2 2 2 2 2 2 2 2 2 2 2 2 2 2 2 2 2 2 2 2 2 2 2 2 2
left_child=1 -1 3 13 25 8 7 10 14 18 11 12 -4 23 -6 -13 -12 -18 -9 -20 21 -7 -11 -3 -10 29 -15 -25 -24 -5
right_child=-2 2 6 4 5 20 -8 9 24 22 16 15 -14 26 -16 -17 17 -19 19 -21 -22 -23 28 27 -26 -27 -28 -29 -30 -31
leaf_value=0.059439988214632145 0.059130698578139199 0.02473516521366196 -0.049460135673848417 -0.052504374579686576 -0.046446484372780282 -0.042234307734857333 -0.049382718534589455 -0.050006567404970663 0.030428364934677182 0.043734558783486685 0.053912515389383013 0.025866674088809417 0.073797591752972028 0.0027313901581463404 -0.012039761233362055 0.086859230366118284 -0.020049679673111834 0.15118583442138156 0.1031595791291276 -0.03422554217841129 -0.057557427295498953 0.044411093655726562 -0.050725343809958356 -0.060791385123641128 0.10713018128796502 -0.05822313758278691 0.04200650927243757 -0.020051017138033055 -0.0058608247327496671 -0.029654271741154599
leaf_weight=1205.2096699625254 17626.498624652624 59.434122860431671 207.88776932656765 464.98634817451239 347.1446125805378 712.30914813280106 731.81610667705536 874.11249479651451 66.500740751624107 54.963823676109314 50.071228191256523 508.5035552829504 26.58639720082283 134.3959187567234 1484.0187735259533 85.254960164427757 893.3810652717948 7.3008116781711569 33.373257875442505 297.58257255703211 2186.2592268660665 27.655958212912083 55.895846098661423 64.991680853068829 30.930725872516632 13692.962051935494 127.74540551006794 636.15523103624582 318.41291537880898 241.46832350641489
leaf_count=6974 104275 234 1249 3809 2231 5249 5640 6216 327 223 186 2015 90 717 7248 282 4649 30 115 1952 19619 153 358 427 103 126920 504 3591 1493 1870
internal_value=3.40898e-05 -0.0406126 -0.0455501 -0.0503857 -0.0525685 -0.0377655 -0.0218957 -0.0160025 -0.0148573 -0.0322767 -0.0010514 0.0147764 -0.0354843 -0.00929202 -0.0185624 0.0346243 -0.0148396 -0.0186617 -0.0418678 -0.0203718 -0.0528637 -0.038996 -0.0053525 -0.0200326 0.0547782 -0.0575594 0.0218707 -0.0238274 -0.0125605 -0.0446941
internal_weight=43253.8 25627.3 24422.1 20277 19254.2 4854.82 4145.14 3413.33 1928.59 1634.34 1778.99 828.233 234.474 1022.72 1831.16 593.759 950.753 900.682 1205.07 330.956 2926.22 739.965 429.273 760.581 97.4315 14399.4 262.141 701.147 374.309 706.455
internal_count=308749 204474 197500 173002 167529 34930 24498 18858 9909 10357 8501 3636 1339 5473 9479 2297 4865 4679 8283 2067 25021 5402 2074 4252 430 132599 1221 4018 1851 5679
is_linear=0
shrinkage=0.05


Tree=25
num_leaves=31
num_cat=0
split_feature=13 7 3 2 2 7 10 11 12 2 7 3 2 0 0 11 7 0 0 3 2 7 12 2 2 2 4 2 9 9
split_gain=39012.9 4732.13 1349.37 839.091 744.844 540.351 425.781 382.483 360.416 246.03 241.514 184.624 118.455 103.585 86.0102 74.0693 71.2965 64.6309 63.8708 63.2603 110.994 67.4191 57.6901 53.4809 46.6778 44.2864 36.9711 33.7413 33.0926 28.1037
threshold=1.0000000180025095e-35 1.0000000180025095e-35 6.5000000000000009 2.5250000000000004 0.36500000000000005 1.5000000000000002 1.0000000180025095e-35 1.0000000180025095e-35 1.0000000180025095e-35 4.205000000000001 1.5000000000000002 4.5000000000000009 0.070000000000000021 41.500000000000007 44.500000000000007 1.0000000180025095e-35 2.5000000000000004 22.500000000000004 27.500000000000004 12.500000000000002 7.0950000000000006 2.5000000000000004 1.0000000180025095e-35 0.64500000000000013 1.0850000000000002 3.5450000000000004 1.3333333333333339 8.1450000000000014 7.5000000000000009 7.5000000000000009
decision_type=2 2 2 2 2 2 2 2 2 2 2 2 2 2 2 2 2 2 2 2 2 2 2 2 2 2 2 2 2 2
left_child=1 -1 3 4 12 17 7 23 -9 11 -4 26 -3 -14 22 -12 18 25 -11 20 29 -22 -8 -6 -16 -5 -7 -18 -15 -17
right_child=-2 2 10 5 6 9 14 8 -10 16 15 -13 13 28 24 19 27 -19 -20 -21 21 -23 -24 -25 -26 -27 -28 -29 -30 -31
leaf_value=0.058895602780516289 0.058606633024079369 0.042566135996251531 0.089489444402293186 -0.059410363151199276 -0.042054744829381201 -0.005390725176485308 -0.0044015671601589914 -0.0015302157522884008 -0.050571660890215066 0.034618171021933201 -0.056990162889967569 -0.046526781467385973 0.019449860891650603 -0.021033432933620862 -0.049837667539929256 -0.05347506559738513 -0.0074621536826566248 0.094544727091121564 0.11301406749048688 -0.05582919970734207 0.11762814501349045 -0.008925259764431908 -0.026499088397723799 -0.056340790183748692 0.030156238721627388 0.093066258651784917 0.03626655292860316 0.036804518011215787 0.00096566283524678683 -0.027480504749998653
leaf_weight=1156.7584499418736 16912.967597171664 138.19164770841599 28.702778607606888 12.277538664638998 773.42069655656815 145.93934332579374 781.39597895741463 769.65073122084141 729.97091004252434 135.58158433437347 11719.862787812948 395.95234123617411 289.97636339068413 631.41846310347319 248.20928113162518 373.49884714186192 144.51468122750521 173.04454277455807 32.139801651239395 658.28250283747911 11.18894551694393 177.04760046303272 474.85222683846951 4282.6076143458486 19.682395666837692 7.7797293663024893 83.872728615999222 61.310401782393456 234.40950766205788 144.09038597345352
leaf_count=6974 104275 578 96 105 6308 679 3619 3525 5573 577 111119 2457 1316 3419 1631 2493 701 574 107 5519 37 1064 2449 40811 93 25 360 258 1197 810
internal_value=3.5905e-05 -0.0398505 -0.0446745 -0.0313779 -0.0364033 0.00812779 -0.0420437 -0.0475781 -0.0254021 -0.00666798 -0.0553889 -0.0258361 -0.00118412 -0.00641505 -0.0182392 -0.0557067 0.0254425 0.0846966 0.0496409 -0.0446797 -0.0342813 -0.00140281 -0.0127543 -0.0541555 -0.0439604 -0.000268368 0.00981261 0.00572384 -0.0150775 -0.0462385
internal_weight=41748.6 24835.6 23678.9 10566.2 9373.79 1192.41 8079.79 6555.65 1499.62 999.311 13112.7 625.764 1294 1155.8 1524.14 13084 373.546 193.102 167.721 1364.11 705.826 188.237 1256.25 5056.03 267.892 20.0573 229.812 205.825 865.828 517.589
internal_count=308749 204474 197500 76362 70519 5843 64009 56217 9098 5139 121138 3496 6510 5932 7792 121042 1643 704 684 9923 4404 1101 6068 47119 1724 130 1039 959 4616 3303
is_linear=0
shrinkage=0.05


Tree=26
num_leaves=31
num_cat=0
split_feature=13 6 3 6 10 2 3 2 7 7 2 6 6 3 1 9 2 1 1 0 2 3 2 7 9 7 6 0 2 10
split_gain=36637.8 4423.38 1333.12 1125.38 512.203 330.383 284.736 251.236 225.073 217.361 247.353 225.227 199.687 155.947 133.256 114.258 112.412 111.458 89.6297 61.2228 56.3636 53.5399 127.083 158.162 45.8604 45.4131 36.6315 33.1047 26.8224 22.2367
threshold=1.0000000180025095e-35 1.0000000180025095e-35 6.5000000000000009 2.5000000000000004 1.0000000180025095e-35 2.8250000000000006 2.5000000000000004 2.2850000000000006 1.5000000000000002 1.5000000000000002 2.1050000000000004 5.5000000000000009 3.5000000000000004 5.5000000000000009 97.500000000000014 7.5000000000000009 4.2650000000000006 98.500000000000014 11.500000000000002 25.500000000000004 4.6750000000000007 12.500000000000002 7.3550000000000013 2.5000000000000004 1.0000000180025095e-35 1.5000000000000002 14.500000000000002 56.500000000000007 0.83500000000000008 1.0000000180025095e-35
decision_type=2 2 2 2 2 2 2 2 2 2 2 2 2 2 2 2 2 2 2 2 2 2 2 2 2 2 2 2 2 2
left_child=1 -1 3 7 5 6 18 17 -4 10 12 16 -6 25 21 -8 -11 27 -5 -9 -15 22 26 -24 -13 -7 -10 -3 -19 -29
right_child=-2 2 8 4 9 13 15 19 14 11 -12 24 -14 20 -16 -17 -18 28 -20 -21 -22 -23 23 -25 -26 -27 -28 29 -30 -31
leaf_value=0.058387159700855465 0.058116891814261162 -0.056314949891721637 0.085581620649149329 -0.043427139734574113 -0.0062848929360861646 0.088382083654655164 -0.048151371647351941 -0.047675736313598123 -0.054461680010128168 -0.058318900955837985 0.084466369175479783 -0.063833899723844345 0.041062799784683648 -0.039360374316327724 0.030627893083116878 -0.025299855931222109 0.05085536141439996 -0.0036853293776545164 -0.0091964456406515918 0.094095935570474964 0.022918481708775168 -0.057832577867089112 0.12308734110215434 -0.033933730041640818 0.0040243399833207565 0.030763926638486573 0.076285262726482519 -0.00281599468549611 0.077331584957878147 -0.066109441361993343
leaf_weight=1109.6813472509384 16220.24287866056 3437.9016692712903 28.51715213060379 225.67432283610106 705.8560183942318 41.205359004437923 1941.0407953113317 9.6801689416170102 3976.4463761523366 297.38653571903706 120.11944963037968 25.922811582684517 325.31836912035942 124.98123318701982 45.223930954933167 761.65707275271416 25.60870486497879 38.836905084550381 1252.9973499923944 35.69582062959671 51.217003643512726 7963.110508710146 16.489082843065262 585.10407224297523 630.08539389073849 201.09822024405003 5.3643460720777503 48.25611837208271 13.862717710435389 19.478263035416603
leaf_count=6974 104275 32060 96 1540 3083 141 17246 90 36749 1694 401 152 1283 854 208 6106 106 290 6687 120 220 79121 54 4879 2967 841 31 300 50 131
internal_value=3.75155e-05 -0.039111 -0.0438243 -0.0305082 -0.0184343 -0.0278213 -0.0320606 -0.0530571 -0.054728 0.00183463 0.0165625 -0.0154851 0.00865252 0.0145349 -0.0550458 -0.0417115 -0.049663 -0.054548 -0.0144207 0.0638514 -0.0212573 -0.0553546 -0.0510494 -0.0296299 0.00134285 0.0405623 -0.0542855 -0.0556329 0.0176263 -0.0210172
internal_weight=40284.1 24063.8 22954.1 10333.9 6730.17 4599.87 4181.37 3603.71 12620.3 2130.3 1151.29 979.003 1031.17 418.502 12591.7 2702.7 322.995 3558.34 1478.67 45.376 176.198 12546.5 4583.4 601.593 656.008 242.304 3981.81 3505.64 52.6996 67.7344
internal_count=308749 204474 197500 76362 43321 33635 31579 33041 121138 9686 4767 4919 4366 2056 121042 23352 1800 32831 8227 210 1074 120834 41713 4933 3119 982 36780 32491 340 431
is_linear=0
shrinkage=0.05


Tree=27
num_leaves=31
num_cat=0
split_feature=13 6 3 6 2 3 6 2 7 7 4 6 1 1 1 3 2 7 3 3 2 7 0 6 0 2 7 1 6 1
split_gain=34415 4134.5 1320.45 1091.79 351.729 409.751 252.915 235.153 210.065 141.887 132.574 162.751 126.839 117.344 106.42 102.623 81.0294 67.6445 66.1352 56.4275 126.194 175.702 55.8076 34.012 32.9879 24.5118 17.4772 16.7077 29.7146 16.6347
threshold=1.0000000180025095e-35 1.0000000180025095e-35 6.5000000000000009 2.5000000000000004 3.3650000000000007 2.5000000000000004 6.5000000000000009 2.2850000000000006 1.5000000000000002 1.5000000000000002 -1.0000000180025095e-35 3.5000000000000004 97.500000000000014 97.500000000000014 98.500000000000014 4.5000000000000009 4.2650000000000006 2.5000000000000004 4.5000000000000009 12.500000000000002 7.1850000000000014 2.5000000000000004 25.500000000000004 14.500000000000002 56.500000000000007 0.83500000000000008 2.5000000000000004 98.500000000000014 9.5000000000000018 69.500000000000014
decision_type=2 2 2 2 2 2 2 2 2 2 2 2 2 2 2 2 2 2 2 2 2 2 2 2 2 2 2 2 2 2
left_child=1 -1 3 7 5 10 13 14 -4 -6 29 -12 19 -7 24 -8 18 -18 -11 20 23 -22 -9 -10 -3 -16 -14 28 -28 -5
right_child=-2 2 8 4 9 6 15 22 12 16 11 -13 26 -15 25 -17 17 -19 -20 -21 21 -23 -24 -25 -26 -27 27 -29 -30 -31
leaf_value=0.057911782625798339 0.057658759276347421 -0.055640079216661059 0.082095768737722105 -0.040694481567873558 0.088557810205328769 -0.038893316497603352 0.02910766687362807 -0.046647969392529069 -0.05390236848612634 0.019400930082800135 -0.01094028069661147 0.018616568037846667 0.10156832640341849 0.022859504028096635 -0.0035092096090131456 -0.020023886112780977 0.0482742081582552 0.0049254090437012062 -0.035467474113793959 -0.057329022531362239 0.1158197943543289 -0.034471320838419049 0.090411753805037992 0.069858109616041275 -0.020202164887110088 0.074265203084995277 -0.077189714810748433 0.072381862923927301 0.031568557281934258 -0.01487444881812117
leaf_weight=1064.0063746720552 15548.65525662899 3308.8943516239524 28.248240798711777 261.99192395061255 62.599779441952705 3045.2184368893504 205.95656415820122 9.4058020114898664 3778.2068908438087 90.685850396752357 1391.2391191422939 700.12302242219448 7.0041765570640555 78.922193810343742 38.749078221619129 219.61388126760721 161.1625093370676 203.79799771308899 139.24988105148077 7639.5913463458419 20.071380168199539 625.04729419946671 35.302563205361366 5.5596392825245848 66.998260766267776 13.717013739049433 9.2624780014157313 9.7180396020412427 19.506971821188927 81.872900456190109
leaf_count=6974 104275 32060 96 1558 207 25134 1028 90 36248 398 7143 3165 22 428 290 1454 650 949 802 79121 65 5369 120 31 431 50 54 33 99 405
internal_value=3.94001e-05 -0.0383756 -0.0429785 -0.0296357 -0.0177578 -0.0215714 -0.0324075 -0.0523528 -0.0540942 0.0169553 -0.00577609 -0.00104557 -0.0544117 -0.0373333 -0.0538386 0.00375353 0.00942068 0.0240678 -0.0138276 -0.0547259 -0.0502355 -0.0297954 0.061577 -0.0537205 -0.0549368 0.0168245 0.0289207 0.0156999 -0.00344675 -0.0345468
internal_weight=38870.4 23321.7 22257.7 10115.5 6642.43 5984.94 3549.71 3473.07 12142.2 657.496 2435.23 2091.36 12114 3124.14 3428.36 425.57 594.896 364.961 229.936 12068.5 4428.89 645.119 44.7084 3783.77 3375.89 52.4661 45.4917 38.4875 28.7694 343.865
internal_count=308749 204474 197500 76362 43321 40315 28044 33041 121138 3006 12271 10308 121042 25562 32831 2482 2799 1599 1200 120834 41713 5434 210 36279 32491 340 208 186 153 1963
is_linear=0
shrinkage=0.05


Tree=28
num_leaves=31
num_cat=0
split_feature=13 6 3 6 2 3 6 2 7 7 2 1 1 1 4 3 2 6 3 3 2 7 0 0 6 2 6 7 1 6
